~o
<STREAMINFO> 1 39
<VECSIZE> 39<NULLD><MFCC_D_A_0><DIAGC>
~s "silst"
<NUMMIXES> 8
<MIXTURE> 1 1.115668e-001
<MEAN> 39
 -1.587503e+001 -1.958858e+000 -4.437719e+000 -4.815019e-001 2.985193e-001 2.000811e+000 1.942670e+000 2.094303e+000 -6.789621e-001 1.077714e+000 -7.693195e-001 7.213687e-001 3.908318e+001 -5.959483e-001 -5.805842e-002 -1.780677e-001 6.099840e-002 1.750613e-001 2.166227e-001 1.556707e-001 2.381808e-001 2.984895e-001 3.560653e-001 3.538662e-001 2.391402e-001 -5.361997e-001 1.667935e-001 -5.628240e-002 -9.090585e-002 -2.817659e-001 -3.657467e-001 -3.484550e-001 -3.128023e-001 -1.912644e-001 -1.447033e-001 -1.344069e-001 -7.983728e-002 -5.720703e-002 1.582718e-001
<VARIANCE> 39
 2.371880e+001 2.619097e+001 3.127797e+001 3.780754e+001 2.893032e+001 3.769237e+001 2.902645e+001 4.715585e+001 3.962706e+001 3.577157e+001 3.391267e+001 2.933383e+001 2.167111e+001 1.255699e+000 1.872566e+000 2.163798e+000 2.199945e+000 2.258978e+000 2.432938e+000 2.508994e+000 2.765480e+000 2.779098e+000 2.692979e+000 2.487645e+000 2.080292e+000 9.390171e-001 2.197858e-001 2.883010e-001 3.343708e-001 3.775050e-001 3.896511e-001 4.391995e-001 4.784066e-001 5.191933e-001 5.017481e-001 5.152825e-001 4.561105e-001 3.927561e-001 1.441042e-001
<GCONST> 1.132895e+002
<MIXTURE> 2 1.283197e-001
<MEAN> 39
 -2.043710e+001 -1.935714e+000 -5.012656e+000 -5.454023e-002 -5.580766e-001 1.663192e+000 1.722391e-001 1.327882e+000 4.783736e-001 1.220736e+000 2.550854e-001 2.776217e-001 3.112690e+001 -3.854049e-002 -1.389895e-002 3.890815e-002 4.421922e-002 6.563390e-002 6.038474e-002 3.076852e-002 4.852806e-003 -1.855614e-002 2.171744e-002 1.432910e-002 -2.784868e-002 -5.225182e-004 2.397054e-001 -1.200511e-001 -1.206005e-001 -3.773544e-001 -3.160285e-001 -3.447753e-001 -1.854880e-001 -1.260337e-001 -1.467090e-001 -1.219013e-001 -1.031144e-001 -7.616946e-003 4.226809e-001
<VARIANCE> 39
 1.163552e+000 3.507149e+000 3.963419e+000 6.441598e+000 7.300226e+000 9.231451e+000 1.047001e+001 1.162689e+001 1.177311e+001 1.224158e+001 1.118064e+001 1.042616e+001 1.201609e+000 2.361069e-001 3.173717e-001 5.219684e-001 7.680523e-001 9.115189e-001 1.076340e+000 1.214696e+000 1.276875e+000 1.351210e+000 1.346471e+000 1.288242e+000 1.164870e+000 1.217169e-001 1.180779e-001 1.622824e-001 2.135292e-001 2.242277e-001 2.511885e-001 2.768523e-001 3.256274e-001 3.574736e-001 3.504090e-001 3.496686e-001 3.194253e-001 2.898640e-001 1.461086e-001
<GCONST> 7.284868e+001
<MIXTURE> 3 1.565778e-001
<MEAN> 39
 -1.914545e+001 -2.116208e+000 -5.955656e+000 -2.330464e+000 -2.832628e+000 -8.921452e-001 -1.645666e+000 -2.848084e-001 -8.497936e-001 5.074869e-001 -4.143495e-001 9.995730e-002 3.216749e+001 -3.200538e-001 1.182979e-001 3.270779e-001 3.096191e-001 2.786117e-001 1.812732e-001 2.607697e-002 -7.461090e-002 -2.001214e-003 1.825174e-001 7.632177e-002 -7.683146e-002 -1.996619e-001 8.615045e-002 -1.839147e-001 -8.129516e-002 -6.770562e-002 3.560458e-002 1.353804e-002 8.273542e-002 9.696373e-002 1.208740e-002 -6.783973e-002 -4.519395e-002 7.973534e-003 2.622136e-001
<VARIANCE> 39
 3.047003e+000 4.803264e+000 6.333574e+000 7.848532e+000 1.007525e+001 1.124356e+001 1.275795e+001 1.458055e+001 1.459251e+001 1.449326e+001 1.317850e+001 1.237556e+001 1.660069e+000 1.008184e+000 1.295416e+000 1.686626e+000 1.934492e+000 1.960379e+000 2.131238e+000 2.148563e+000 2.236145e+000 2.241027e+000 2.250739e+000 1.877887e+000 1.690697e+000 9.393956e-001 1.181341e-001 1.754940e-001 1.981879e-001 2.173205e-001 2.512893e-001 2.845455e-001 3.231731e-001 3.332366e-001 3.532819e-001 3.517270e-001 3.083177e-001 2.896977e-001 1.099600e-001
<GCONST> 8.774181e+001
<MIXTURE> 4 1.820759e-001
<MEAN> 39
 -2.013894e+001 -2.048068e+000 -5.402450e+000 -1.209969e+000 -2.097661e+000 -2.145794e-002 -1.117105e+000 3.933545e-001 -2.539321e-001 6.298350e-001 -3.378401e-002 2.975167e-001 3.112276e+001 -3.608799e-002 -1.246871e-002 1.464843e-002 9.267921e-003 1.891592e-002 1.526028e-002 -1.487994e-002 -2.425210e-002 -2.844427e-002 -2.060276e-003 -1.787550e-002 -2.014069e-002 -1.593017e-002 1.980589e-002 -3.156171e-003 -3.979377e-003 3.628905e-003 3.692872e-002 3.405915e-002 3.475918e-002 1.807836e-002 4.015034e-003 3.836691e-003 -9.467979e-003 -1.566488e-002 3.909748e-002
<VARIANCE> 39
 1.012703e+000 2.809627e+000 3.376548e+000 5.853323e+000 6.352521e+000 7.987907e+000 9.018515e+000 1.035939e+001 1.082745e+001 1.129128e+001 1.060467e+001 9.507170e+000 1.201609e+000 1.110138e-001 2.182094e-001 3.802758e-001 5.846643e-001 7.597201e-001 9.614918e-001 1.088948e+000 1.210193e+000 1.277090e+000 1.308140e+000 1.203279e+000 1.077678e+000 5.439000e-002 2.275898e-002 4.457191e-002 7.492775e-002 1.118348e-001 1.393539e-001 1.758448e-001 2.078819e-001 2.364282e-001 2.499320e-001 2.603853e-001 2.409637e-001 2.175439e-001 1.038237e-002
<GCONST> 5.772776e+001
<MIXTURE> 5 1.154603e-001
<MEAN> 39
 -1.469544e+001 -7.576768e+000 -8.190484e+000 -7.036014e+000 -5.625540e+000 -4.557168e+000 -1.999352e+000 -6.038400e-001 -3.300278e+000 -2.446135e+000 -2.925150e+000 -3.125407e-001 4.163504e+001 -5.971196e-002 4.446690e-001 -1.356180e-001 5.466054e-001 2.327831e-001 3.758363e-001 1.024678e-001 9.198549e-002 1.174841e-001 7.303935e-002 4.971746e-002 4.198503e-002 -9.789075e-001 -2.286216e-001 2.480541e-001 1.852238e-001 2.586744e-001 2.997686e-001 2.642611e-001 1.534435e-001 1.428212e-001 2.086186e-001 1.656993e-001 1.238053e-001 2.585106e-002 -9.518780e-002
<VARIANCE> 39
 1.554569e+001 2.717688e+001 3.188941e+001 2.881492e+001 3.265458e+001 3.220438e+001 3.636532e+001 3.931324e+001 3.718530e+001 3.376462e+001 2.905125e+001 2.546498e+001 2.469793e+001 1.374460e+000 1.817333e+000 1.945016e+000 1.966971e+000 2.132356e+000 2.348748e+000 2.425737e+000 2.505535e+000 2.545657e+000 2.518843e+000 2.093238e+000 1.849984e+000 1.625869e+000 2.790651e-001 3.395108e-001 4.090194e-001 4.049335e-001 4.203621e-001 4.508590e-001 5.027233e-001 5.465779e-001 5.418036e-001 4.986800e-001 4.450552e-001 4.041850e-001 2.538950e-001
<GCONST> 1.135847e+002
<MIXTURE> 6 7.876737e-002
<MEAN> 39
 -2.000241e+001 -2.007291e+000 -5.196370e+000 -8.413579e-001 -1.361884e+000 7.515100e-001 -4.099301e-001 1.023362e+000 4.453332e-001 1.361677e+000 2.708800e-001 3.839526e-001 3.153642e+001 6.844222e-001 -2.604547e-001 1.709610e-001 -5.155424e-001 -3.675186e-001 -1.399266e-001 -3.090326e-004 -3.090783e-001 -4.979596e-001 -2.654155e-001 -3.873501e-001 -2.376222e-001 1.080724e+000 5.858139e-001 -4.438398e-001 -1.301877e-001 -8.180122e-001 -6.125619e-001 -5.384575e-001 -2.600167e-001 -2.173675e-001 -3.436801e-001 -2.780301e-001 -2.946346e-001 -1.386221e-001 1.350976e+000
<VARIANCE> 39
 2.014692e+000 3.936616e+000 5.458902e+000 7.652792e+000 9.278059e+000 1.098750e+001 1.196402e+001 1.354440e+001 1.353811e+001 1.369010e+001 1.273220e+001 1.143178e+001 1.287308e+000 2.875753e+000 3.163655e+000 3.494256e+000 4.913458e+000 4.615916e+000 4.031048e+000 3.604778e+000 3.755266e+000 3.620461e+000 3.238109e+000 2.968408e+000 2.370253e+000 5.752069e+000 4.879940e-001 4.332303e-001 6.191643e-001 6.586698e-001 7.168578e-001 6.065332e-001 5.809943e-001 6.234069e-001 5.902107e-001 5.530875e-001 5.092998e-001 4.194193e-001 7.505291e-001
<GCONST> 1.071407e+002
<MIXTURE> 7 1.169809e-001
<MEAN> 39
 -1.626946e+001 -9.065698e+000 -9.349693e+000 -6.909766e+000 -3.135558e+000 -3.451774e+000 -9.466607e-001 1.844761e+000 -6.975474e-001 -1.707665e+000 -2.150737e+000 5.317374e-001 4.211377e+001 1.550851e-001 -3.582087e-001 -3.860340e-001 -3.402484e-001 -2.737033e-001 -3.280689e-001 -2.801051e-001 -7.657482e-002 -1.718681e-001 -2.171055e-001 -1.552235e-001 -3.565964e-002 -1.130941e-001 2.313278e-002 2.763630e-001 1.758429e-001 1.590679e-001 -8.836093e-003 1.226058e-002 -9.024234e-002 -1.643583e-001 -1.332049e-001 -2.116458e-002 -2.840287e-002 -8.287080e-002 -4.718227e-002
<VARIANCE> 39
 1.535385e+001 2.183680e+001 2.450464e+001 2.484412e+001 2.905637e+001 3.507499e+001 3.433076e+001 3.170931e+001 2.982814e+001 3.100443e+001 2.627562e+001 2.280623e+001 3.452429e+001 1.027426e+000 1.157049e+000 1.309069e+000 1.470065e+000 1.681199e+000 1.968427e+000 2.072763e+000 2.131758e+000 2.018204e+000 2.049484e+000 1.880430e+000 1.709975e+000 1.405635e+000 1.363768e-001 1.649859e-001 2.136202e-001 2.312332e-001 2.573498e-001 3.249166e-001 3.622777e-001 3.693293e-001 3.648284e-001 3.781806e-001 3.394781e-001 3.237621e-001 9.309991e-002
<GCONST> 1.031704e+002
<MIXTURE> 8 1.101971e-001
<MEAN> 39
 -1.609929e+001 -5.824932e+000 -7.039390e+000 -6.843346e+000 -5.813334e+000 -4.155267e+000 -1.942576e+000 1.257457e-001 -1.499217e-001 9.852638e-001 -1.589414e+000 -4.154044e-001 4.213691e+001 -8.540180e-002 3.828058e-002 -2.908511e-002 3.130408e-001 3.645146e-001 4.487398e-001 3.489469e-001 7.266228e-002 -7.180317e-002 -8.186001e-002 -1.222803e-001 -8.864304e-002 -4.730084e-001 1.913448e-001 4.926403e-002 1.133301e-001 -3.684612e-002 6.831783e-003 7.408863e-002 -7.330079e-002 -9.206593e-002 -2.643550e-001 -2.415750e-001 -1.029378e-001 -8.254877e-002 3.397616e-001
<VARIANCE> 39
 3.627041e+001 3.677713e+001 5.262098e+001 5.210902e+001 7.833156e+001 6.886656e+001 6.152840e+001 6.660578e+001 6.472248e+001 6.160546e+001 5.424867e+001 4.414743e+001 3.935438e+001 4.646809e+000 4.119675e+000 4.347961e+000 5.942612e+000 6.430048e+000 6.259573e+000 5.604550e+000 5.748132e+000 5.814579e+000 5.210086e+000 4.601018e+000 3.756875e+000 9.475163e+000 9.562127e-001 8.357619e-001 7.954878e-001 1.226218e+000 1.335371e+000 1.283680e+000 1.203259e+000 1.257819e+000 1.228791e+000 1.110252e+000 1.019427e+000 8.410018e-001 1.705366e+000
<GCONST> 1.467211e+002
~h "b"
<BEGINHMM>
<NUMSTATES> 5
<STATE> 2
<NUMMIXES> 8
<MIXTURE> 1 1.088155e-001
<MEAN> 39
 -8.593870e+000 7.196672e+000 2.252115e+000 4.050323e+000 3.353442e-001 -1.957477e+000 -7.210249e+000 -8.246972e+000 -7.666701e+000 -4.337433e+000 -4.177151e+000 -4.376941e+000 3.613047e+001 -7.843908e-001 8.704689e-002 4.755903e-001 6.458424e-001 5.475571e-001 4.872324e-001 5.017869e-001 4.561086e-001 7.653412e-002 -2.860810e-001 -2.082918e-001 1.091162e-001 -5.680020e-001 -7.656738e-003 -8.850063e-001 -5.632442e-001 -7.639086e-001 -4.263824e-001 -1.340903e-001 1.643483e-001 4.139138e-001 3.723827e-001 2.603956e-001 1.669860e-001 1.420685e-001 9.586450e-001
<VARIANCE> 39
 6.281176e+000 4.105346e+000 5.458899e+000 8.866023e+000 1.154642e+001 1.563488e+001 1.787235e+001 1.875867e+001 1.559306e+001 1.713181e+001 1.542939e+001 1.350669e+001 2.521377e+000 1.484503e+000 8.478590e-001 1.032753e+000 1.310003e+000 1.112413e+000 1.364369e+000 1.786620e+000 2.273289e+000 2.044405e+000 1.875360e+000 1.559446e+000 1.348223e+000 7.017254e-001 1.890387e-001 2.960411e-001 2.666853e-001 3.812024e-001 3.487141e-001 2.914808e-001 3.293017e-001 4.481494e-001 4.092311e-001 3.887872e-001 3.051667e-001 3.006811e-001 4.997239e-001
<GCONST> 9.146386e+001
<MIXTURE> 2 1.788355e-001
<MEAN> 39
 -1.219980e+000 1.467638e+000 -5.934309e+000 -4.197514e+000 -3.031376e+000 -1.207487e+000 -7.349234e+000 -8.806495e+000 -1.012614e+001 -5.368513e+000 -1.444639e+000 -3.053009e+000 4.437967e+001 -1.441604e+000 3.492198e+000 1.528907e+000 2.412682e+000 1.606251e+000 1.013607e+000 1.802770e+000 -9.021303e-001 -1.384871e+000 -1.231746e+000 -1.058419e+000 -2.236897e-001 -4.036120e+000 -4.038730e-001 -8.203037e-001 1.652541e-001 -4.174027e-001 -4.744057e-001 -4.373436e-001 -3.615249e-001 6.213489e-001 7.180310e-001 3.777057e-001 -7.106771e-002 -7.089468e-002 1.131747e+000
<VARIANCE> 39
 5.028694e+000 1.517225e+001 1.979947e+001 3.181933e+001 2.130455e+001 2.577884e+001 3.037144e+001 2.536168e+001 3.007389e+001 3.286535e+001 2.999243e+001 2.730302e+001 1.138974e+001 1.478057e+000 2.892225e+000 4.765007e+000 6.055972e+000 4.348001e+000 4.996741e+000 5.579763e+000 5.750731e+000 5.096631e+000 4.637502e+000 4.022424e+000 3.028286e+000 2.743361e+000 2.296577e-001 3.329147e-001 4.771109e-001 6.358286e-001 5.734570e-001 5.818222e-001 7.160326e-001 7.078007e-001 6.570837e-001 6.324768e-001 6.832967e-001 4.693137e-001 3.800879e-001
<GCONST> 1.209595e+002
<MIXTURE> 3 1.193282e-001
<MEAN> 39
 -1.882869e+001 -1.701047e+000 -4.532644e+000 -4.013132e-001 -3.608279e-001 8.287413e-001 -1.442935e+000 -9.551657e-001 -1.074413e+000 8.828334e-001 -4.863781e-001 -9.894488e-001 3.318275e+001 4.814396e-001 8.842602e-002 -9.749681e-002 8.334759e-001 1.067606e-001 1.164374e-001 3.845823e-002 -4.957199e-002 1.012291e-002 1.029167e-001 4.867334e-002 -8.296556e-002 -1.094757e+000 3.428219e-001 -2.098747e-001 -2.489759e-002 -7.632301e-001 -4.520310e-001 -5.430769e-001 -2.891815e-001 -4.660549e-002 -7.540055e-002 -2.225848e-001 -1.088334e-001 -1.191595e-003 1.974960e+000
<VARIANCE> 39
 5.554210e+000 1.225811e+001 1.475748e+001 1.208749e+001 1.252350e+001 1.418087e+001 1.544480e+001 1.790145e+001 1.693941e+001 1.823144e+001 1.431525e+001 1.451534e+001 8.302088e+000 2.725924e+000 2.501682e+000 2.521426e+000 3.022860e+000 2.150578e+000 2.814670e+000 2.340400e+000 2.827101e+000 2.705493e+000 2.565064e+000 2.044724e+000 1.763525e+000 1.166426e+001 6.635727e-001 3.745424e-001 5.668899e-001 5.105289e-001 4.734424e-001 5.142304e-001 5.536017e-001 5.261011e-001 5.135870e-001 4.913956e-001 4.006826e-001 3.534326e-001 7.348578e-001
<GCONST> 1.094687e+002
<MIXTURE> 4 1.337422e-001
<MEAN> 39
 -4.968206e+000 6.789238e+000 -1.065927e+000 -4.282175e-001 -1.150579e+000 -4.541386e-001 -6.055209e+000 -9.913063e+000 -1.068653e+001 -5.217375e+000 -2.465722e+000 -3.072428e+000 3.887262e+001 -2.189526e+000 2.048368e+000 1.984607e+000 2.269054e+000 1.398033e+000 6.814037e-001 1.114752e+000 7.258783e-002 -5.409847e-001 -9.539590e-001 -9.979838e-001 -1.313079e-001 -2.697829e+000 -6.077181e-002 -1.735854e+000 -5.615655e-001 -9.841871e-001 -7.522255e-001 -5.672496e-001 -3.793443e-001 8.363230e-001 1.052361e+000 6.302387e-001 1.611356e-001 4.089189e-002 1.915107e+000
<VARIANCE> 39
 6.939866e+000 5.141981e+000 1.019042e+001 1.724389e+001 1.542771e+001 1.738708e+001 2.028408e+001 2.136953e+001 2.059656e+001 2.658592e+001 1.918988e+001 1.770380e+001 4.275484e+000 1.562437e+000 2.350744e+000 2.703430e+000 3.758744e+000 2.885250e+000 3.153843e+000 3.137706e+000 3.339155e+000 3.329074e+000 3.021430e+000 2.602902e+000 2.210212e+000 2.318576e+000 2.726544e-001 4.236329e-001 6.282250e-001 7.784977e-001 6.650267e-001 7.053047e-001 8.341681e-001 8.085524e-001 7.057484e-001 6.712964e-001 5.875567e-001 4.299566e-001 5.565915e-001
<GCONST> 1.120138e+002
<MIXTURE> 5 9.581237e-002
<MEAN> 39
 -3.082935e+000 5.523850e+000 -2.828655e+000 -1.026863e+000 -4.264945e-001 6.051178e-001 -5.979132e+000 -9.997385e+000 -1.125140e+001 -5.433487e+000 -1.094378e+000 -3.173419e+000 4.033833e+001 -3.775329e-001 4.767518e-001 4.506891e-001 3.198565e-001 2.117967e-001 1.602754e-001 1.314414e-001 1.264558e-004 3.182187e-002 -5.402756e-002 -1.332161e-001 1.248462e-001 -4.592403e-001 -1.818741e-001 -7.323259e-001 -7.830425e-002 -3.850536e-001 -4.044846e-001 -4.433290e-001 -2.548233e-001 4.194242e-001 6.047964e-001 2.838967e-001 -9.729523e-002 -3.814985e-002 8.592519e-001
<VARIANCE> 39
 3.690261e+000 8.202296e+000 8.826290e+000 1.607811e+001 1.311946e+001 1.461832e+001 2.246972e+001 1.577346e+001 1.958327e+001 2.426108e+001 1.917686e+001 2.228940e+001 3.651395e+000 4.871076e-001 6.602817e-001 7.818124e-001 1.113695e+000 1.026030e+000 1.113355e+000 1.439919e+000 1.503435e+000 1.476173e+000 1.621841e+000 1.829427e+000 1.356067e+000 4.670434e-001 1.599672e-001 3.529006e-001 2.631950e-001 4.018734e-001 3.503322e-001 3.297553e-001 4.195223e-001 3.978468e-001 3.865193e-001 3.895699e-001 3.633022e-001 3.170159e-001 5.032898e-001
<GCONST> 9.152808e+001
<MIXTURE> 6 1.496564e-001
<MEAN> 39
 2.524401e-002 -6.179393e+000 -6.268484e+000 -7.436392e+000 -6.694587e+000 -7.520545e+000 -1.233253e+001 -5.867998e+000 -5.257879e+000 -9.617445e-001 -4.507309e-001 -4.104404e+000 5.177580e+001 -6.681536e-001 4.286563e+000 4.688013e-001 2.821069e+000 2.658175e+000 2.055049e+000 7.152423e-001 -2.462102e+000 -1.703615e+000 -1.219351e+000 -2.706240e-001 -4.623974e-001 -5.327458e+000 -7.553238e-001 2.299325e-001 4.672945e-001 8.712091e-003 -1.607217e-001 2.042702e-001 6.181076e-001 3.045870e-001 -6.532188e-002 -3.022418e-001 -4.084299e-001 7.418041e-002 9.350249e-002
<VARIANCE> 39
 8.534334e+000 2.318081e+001 3.588179e+001 4.936044e+001 2.732128e+001 6.128021e+001 3.780391e+001 3.777605e+001 4.368890e+001 4.071048e+001 4.871711e+001 3.405243e+001 2.484979e+001 1.738220e+000 2.657377e+000 6.329054e+000 6.035603e+000 5.488935e+000 6.775715e+000 8.019197e+000 6.133060e+000 6.524867e+000 5.524596e+000 4.408023e+000 4.594186e+000 2.571784e+000 1.801719e-001 4.167771e-001 3.823791e-001 5.143856e-001 5.393206e-001 6.609178e-001 6.053556e-001 6.269540e-001 6.246526e-001 5.959790e-001 6.204706e-001 5.195235e-001 4.312758e-001
<GCONST> 1.282871e+002
<MIXTURE> 7 1.043330e-001
<MEAN> 39
 -5.381655e+000 4.195721e+000 -2.013216e+000 -1.225058e+000 -4.717151e+000 -8.979220e+000 -1.389664e+001 -1.213093e+001 -9.393393e+000 -5.308881e+000 -8.679000e+000 -9.438622e+000 4.012248e+001 -1.474014e+000 2.393191e+000 1.324818e+000 2.294561e+000 1.079386e+000 1.086514e+000 1.094563e-002 -1.104584e+000 -8.254477e-001 -1.265607e+000 -2.798568e-001 -7.303063e-001 -2.929512e+000 -4.555076e-001 -1.441037e+000 -3.718967e-001 -1.175630e+000 -4.196626e-001 -3.234651e-002 9.612468e-001 1.244704e+000 5.303311e-001 3.942231e-001 3.212277e-001 8.706351e-001 1.776515e+000
<VARIANCE> 39
 8.066211e+000 1.165864e+001 1.479889e+001 2.245448e+001 1.965732e+001 2.415117e+001 1.820874e+001 3.041719e+001 3.353264e+001 3.671585e+001 2.925974e+001 1.886692e+001 1.156129e+001 3.663258e+000 3.942640e+000 3.301715e+000 4.761344e+000 3.686945e+000 4.575772e+000 3.869187e+000 4.681472e+000 4.664830e+000 3.838423e+000 3.143858e+000 3.472769e+000 5.093791e+000 3.544523e-001 5.570307e-001 6.838165e-001 6.063268e-001 7.836298e-001 7.980313e-001 7.317521e-001 8.462338e-001 9.608309e-001 9.132743e-001 7.108287e-001 4.843073e-001 7.407830e-001
<GCONST> 1.234861e+002
<MIXTURE> 8 1.094543e-001
<MEAN> 39
 -4.230894e+000 4.632048e+000 -1.468600e+000 -9.217654e-001 -5.263058e+000 -6.028503e+000 -7.953574e+000 -7.630951e+000 -8.412944e+000 -4.292289e+000 -6.016018e+000 -7.776792e+000 4.134923e+001 -4.017579e-001 5.324005e-001 4.143428e-001 3.780985e-001 6.165952e-001 2.685672e-001 5.064844e-002 2.641615e-002 2.487306e-001 -2.423665e-001 -5.926037e-002 2.364254e-001 -6.282967e-001 -2.784357e-001 -8.253263e-001 -1.104056e-001 -5.400158e-001 -1.789672e-001 6.166481e-002 1.937418e-002 2.365735e-001 2.499849e-001 1.496096e-001 3.245453e-001 5.057905e-001 9.337382e-001
<VARIANCE> 39
 5.799498e+000 1.430404e+001 1.552358e+001 3.544898e+001 3.085346e+001 3.496701e+001 4.166791e+001 3.259316e+001 4.303916e+001 3.179223e+001 3.462828e+001 2.229063e+001 1.338408e+001 1.231915e+000 1.438229e+000 1.353915e+000 2.088674e+000 1.966698e+000 1.990508e+000 1.993052e+000 2.047186e+000 2.776271e+000 2.088177e+000 2.112605e+000 2.008176e+000 1.329398e+000 2.730314e-001 4.206890e-001 4.785500e-001 8.291858e-001 6.350325e-001 4.377126e-001 6.410180e-001 7.003291e-001 7.875625e-001 5.561618e-001 4.902520e-001 4.055061e-001 6.087403e-001
<GCONST> 1.128305e+002
<STATE> 3
<NUMMIXES> 8
<MIXTURE> 1 1.319911e-001
<MEAN> 39
 -2.014824e+001 -1.960121e+000 -4.934029e+000 -5.849665e-001 -1.275031e+000 5.484101e-001 -7.951400e-001 6.780615e-001 3.037369e-001 1.218993e+000 4.975662e-001 2.628735e-001 3.105321e+001 3.594917e-001 -1.014846e+000 -4.438263e-001 -9.172903e-001 -6.882828e-001 -6.973193e-001 -1.162029e-001 8.668741e-002 3.015177e-001 1.379839e-001 1.560564e-001 2.236324e-001 2.554848e+000 9.987891e-001 -2.508479e-001 1.683899e-002 -8.235512e-001 -4.674911e-001 -6.496368e-001 -4.696352e-001 -3.631625e-001 -3.584044e-001 -2.637432e-001 -2.807465e-001 -2.344817e-001 2.381039e+000
<VARIANCE> 39
 1.012703e+000 2.580511e+000 3.079709e+000 5.521937e+000 6.264385e+000 8.937332e+000 9.893214e+000 9.561330e+000 1.015234e+001 1.051653e+001 9.838657e+000 1.024538e+001 1.201609e+000 1.239149e+000 1.445453e+000 1.242050e+000 1.692213e+000 1.333580e+000 1.793537e+000 2.010425e+000 1.855055e+000 1.899644e+000 1.977225e+000 1.684132e+000 1.546330e+000 9.530416e+000 4.675614e-001 2.865194e-001 4.188314e-001 4.847952e-001 3.807473e-001 5.097919e-001 4.126725e-001 4.384304e-001 4.504921e-001 4.049492e-001 4.180114e-001 3.101235e-001 6.482357e-001
<GCONST> 9.043104e+001
<MIXTURE> 2 1.345171e-001
<MEAN> 39
 -1.036488e+001 7.078930e+000 2.643363e+000 4.905927e+000 1.923411e+000 5.174228e-001 -4.648292e+000 -6.255881e+000 -7.523038e+000 -5.522794e+000 -4.504877e+000 -3.310330e+000 3.505167e+001 -1.597268e+000 -1.936457e+000 -6.041722e-001 -7.947677e-001 -3.089708e-001 -2.741646e-001 7.132808e-001 1.473435e+000 1.478809e+000 5.132868e-001 -2.580295e-002 1.846279e-001 1.655723e+000 6.397433e-001 -1.473010e+000 -1.054596e+000 -1.641962e+000 -1.145861e+000 -6.738812e-001 -3.355841e-001 2.079741e-001 5.374689e-001 6.903768e-001 5.983688e-001 1.847086e-001 2.207082e+000
<VARIANCE> 39
 6.054800e+000 3.175548e+000 4.629685e+000 7.516795e+000 8.959757e+000 1.015745e+001 1.292162e+001 1.505689e+001 1.491722e+001 1.529238e+001 1.329118e+001 1.082224e+001 2.240943e+000 3.728360e+000 2.889609e+000 2.263690e+000 4.058042e+000 2.767514e+000 2.648923e+000 2.725085e+000 3.051784e+000 3.221861e+000 2.946843e+000 2.087967e+000 1.792221e+000 7.628805e+000 3.298704e-001 3.909187e-001 6.423410e-001 5.885256e-001 4.913952e-001 5.834063e-001 5.275875e-001 5.815747e-001 5.600123e-001 5.240700e-001 4.516987e-001 3.919974e-001 4.847538e-001
<GCONST> 1.043445e+002
<MIXTURE> 3 1.128978e-001
<MEAN> 39
 -3.975729e+000 7.970669e+000 -1.702718e+000 -3.549846e+000 -3.776731e+000 5.521681e-001 -2.332442e+000 -6.492103e+000 -1.091400e+001 -8.965148e+000 -5.055797e+000 -1.937520e+000 3.908832e+001 -1.515133e+000 -1.450798e+000 8.976884e-002 -1.616088e-001 9.855499e-002 -6.374949e-001 -2.138980e-001 4.583044e-001 1.313870e+000 8.969774e-001 1.134662e-002 -7.592940e-002 1.689257e+000 3.214132e-001 -1.597580e+000 -9.259667e-001 -1.096320e+000 -5.133092e-001 -3.826355e-001 -7.718391e-001 -6.568180e-003 7.205120e-001 9.307187e-001 8.256319e-001 1.939388e-001 2.039978e+000
<VARIANCE> 39
 5.231347e+000 4.798333e+000 7.905694e+000 1.363369e+001 1.629482e+001 1.426436e+001 1.479240e+001 1.962468e+001 1.513169e+001 1.647330e+001 2.216033e+001 1.591310e+001 3.050791e+000 1.390152e+000 2.863929e+000 1.778633e+000 2.312361e+000 1.862782e+000 1.777069e+000 1.817743e+000 2.117124e+000 2.151677e+000 2.260880e+000 2.299902e+000 1.590114e+000 4.041072e+000 2.994425e-001 3.701848e-001 4.748877e-001 7.888911e-001 6.178586e-001 6.093488e-001 6.609182e-001 6.611840e-001 5.790992e-001 5.488113e-001 5.375314e-001 4.615757e-001 3.542210e-001
<GCONST> 1.042507e+002
<MIXTURE> 4 1.190961e-001
<MEAN> 39
 -1.846411e+001 -2.272397e+000 -4.923309e+000 -1.222392e+000 -1.062294e+000 5.118725e-001 -8.192826e-001 -1.392904e-001 -6.320791e-001 8.232703e-001 -3.367614e-001 -4.028926e-001 3.453941e+001 2.139717e+000 -1.412452e+000 -3.211291e-001 -2.281737e+000 -1.787296e+000 -2.099677e+000 -8.585674e-001 -7.216080e-002 9.171525e-002 -2.623121e-001 -1.705956e-001 -4.533779e-002 6.137682e+000 1.317159e+000 -4.440057e-001 3.156798e-002 -1.022142e+000 -8.179952e-001 -5.213760e-001 -7.297788e-001 -3.861907e-001 -4.187071e-001 -1.745840e-001 -1.604777e-001 -2.525444e-001 1.858874e+000
<VARIANCE> 39
 6.879098e+000 1.139469e+001 1.115791e+001 1.392638e+001 1.510567e+001 1.718466e+001 1.427770e+001 1.591129e+001 1.470059e+001 1.603543e+001 1.241346e+001 1.233655e+001 1.679092e+001 2.812327e+000 2.245190e+000 3.324728e+000 3.173155e+000 2.594126e+000 3.433886e+000 3.394992e+000 3.365896e+000 3.557475e+000 3.350643e+000 2.789201e+000 2.253288e+000 3.889494e+000 3.208160e-001 5.013987e-001 8.894537e-001 8.036885e-001 6.936169e-001 9.870124e-001 7.609231e-001 7.460636e-001 7.586918e-001 6.453437e-001 7.000341e-001 4.543342e-001 5.058381e-001
<GCONST> 1.142317e+002
<MIXTURE> 5 1.225853e-001
<MEAN> 39
 -8.990342e+000 6.531542e+000 1.214739e+000 1.607110e+000 -2.971785e+000 -6.767699e+000 -1.195210e+001 -1.228671e+001 -1.111957e+001 -7.880506e+000 -8.560202e+000 -7.836409e+000 3.652913e+001 -2.066425e+000 -2.199487e+000 -5.442679e-001 -8.890200e-001 5.778835e-002 6.961846e-001 2.207019e+000 2.432854e+000 1.582198e+000 6.111055e-001 9.362494e-001 1.301151e+000 2.223315e+000 5.081274e-001 -1.666757e+000 -1.071934e+000 -1.715170e+000 -7.825643e-001 -3.215645e-001 4.815503e-001 1.020426e+000 7.290976e-001 9.581285e-001 4.377418e-001 5.795331e-001 2.286528e+000
<VARIANCE> 39
 8.439046e+000 4.787417e+000 8.661379e+000 1.349891e+001 1.443020e+001 1.756001e+001 1.675187e+001 1.886430e+001 2.133329e+001 2.588096e+001 2.391315e+001 1.892341e+001 4.542956e+000 2.488822e+000 2.270021e+000 2.568652e+000 4.194432e+000 2.879343e+000 3.768108e+000 2.823906e+000 3.295715e+000 3.566725e+000 3.276181e+000 3.039232e+000 2.286752e+000 7.875830e+000 4.595447e-001 4.961140e-001 8.347658e-001 6.726464e-001 7.900181e-001 8.053125e-001 6.819167e-001 7.348408e-001 8.629733e-001 7.560093e-001 6.990947e-001 5.800916e-001 5.762239e-001
<GCONST> 1.154753e+002
<MIXTURE> 6 1.612923e-001
<MEAN> 39
 -3.923043e+000 6.632788e-001 -3.133219e+000 -1.335650e+000 -2.390695e+000 -4.566645e+000 -1.058646e+001 -8.910663e+000 -7.783176e+000 -2.284670e+000 -1.493047e+000 -5.335342e+000 4.482829e+001 -1.212855e+000 -1.045910e+000 5.406649e-001 -5.793121e-001 -7.110116e-001 -7.315986e-001 4.377441e-001 9.717309e-001 6.846001e-001 -1.308877e-001 -1.701760e-001 7.891011e-001 1.795305e+000 4.741074e-003 -1.208703e+000 2.492649e-001 -9.975274e-001 -1.161748e+000 -4.919576e-001 -5.379893e-002 8.204565e-001 3.022568e-001 -2.955414e-002 1.019266e-001 2.961538e-001 1.699474e+000
<VARIANCE> 39
 1.534169e+001 2.879657e+001 2.892443e+001 4.664130e+001 3.009710e+001 3.935291e+001 2.782106e+001 2.890708e+001 3.304670e+001 3.025304e+001 3.341348e+001 2.998122e+001 3.284489e+001 2.196246e+000 3.659798e+000 2.607732e+000 3.598837e+000 3.565505e+000 4.320414e+000 3.654418e+000 3.417187e+000 4.407274e+000 2.721249e+000 2.745241e+000 2.286395e+000 5.297801e+000 4.116010e-001 6.185470e-001 8.830506e-001 7.783659e-001 1.056605e+000 8.831504e-001 7.838340e-001 8.382645e-001 1.180283e+000 7.431596e-001 5.955147e-001 5.576805e-001 6.123961e-001
<GCONST> 1.276661e+002
<MIXTURE> 7 1.070397e-001
<MEAN> 39
 -3.478696e+000 4.213580e+000 -3.112714e+000 -2.528902e+000 -2.499237e+000 -4.293956e-001 -5.211765e+000 -1.006285e+001 -1.282187e+001 -6.442375e+000 -2.103953e+000 -3.327902e+000 4.255605e+001 -2.090311e-001 -2.484558e+000 -1.292669e+000 -2.940533e+000 -1.114017e+000 -6.303709e-001 -6.647704e-001 1.136188e+000 2.549889e+000 1.480026e+000 6.515661e-001 5.613258e-001 3.847216e+000 3.630548e-001 -1.357785e+000 -6.052091e-001 -1.235407e+000 -7.649831e-001 -2.073266e-001 -5.490264e-001 5.624358e-001 9.254869e-001 8.037340e-001 3.634439e-001 -1.497390e-001 1.698873e+000
<VARIANCE> 39
 7.000298e+000 1.137855e+001 1.398849e+001 2.460290e+001 2.442775e+001 2.253263e+001 2.512684e+001 2.426639e+001 2.325953e+001 3.016959e+001 3.078753e+001 2.456489e+001 1.147058e+001 2.122631e+000 2.660383e+000 1.952268e+000 5.005582e+000 3.618465e+000 3.427388e+000 3.361714e+000 4.340277e+000 4.443873e+000 3.594398e+000 3.628356e+000 2.946129e+000 4.116676e+000 2.958041e-001 3.716302e-001 4.845721e-001 7.664931e-001 6.878749e-001 8.074389e-001 8.823518e-001 9.145005e-001 7.381381e-001 7.006278e-001 9.601945e-001 5.777843e-001 3.080671e-001
<GCONST> 1.195787e+002
<MIXTURE> 8 1.105655e-001
<MEAN> 39
 -1.485067e+001 3.529720e+000 1.690391e-001 3.207980e+000 1.176211e+000 1.112200e+000 -2.586356e+000 -3.130807e+000 -4.713042e+000 -4.326832e+000 -4.676092e+000 -4.071208e+000 3.375264e+001 -1.311906e+000 -3.202482e+000 -1.996962e+000 -2.343612e+000 -1.054930e+000 -5.682881e-001 9.279482e-001 1.876109e+000 2.424141e+000 1.976470e+000 1.494981e+000 1.161237e+000 3.492217e+000 1.355900e+000 -7.014340e-001 -6.552190e-001 -1.401061e+000 -1.044230e+000 -8.156160e-001 -6.969225e-001 -3.538218e-001 -1.315556e-001 2.997921e-001 3.062314e-001 1.666779e-001 2.100507e+000
<VARIANCE> 39
 8.903268e+000 8.209856e+000 8.148420e+000 8.795700e+000 1.049559e+001 1.166199e+001 1.309439e+001 1.574585e+001 1.461550e+001 1.610801e+001 1.484887e+001 1.370063e+001 5.306147e+000 1.987030e+000 1.487616e+000 1.535208e+000 2.812826e+000 2.848758e+000 3.293742e+000 3.438448e+000 3.123166e+000 2.699928e+000 2.547266e+000 2.543072e+000 2.016627e+000 7.976768e+000 3.904827e-001 3.688177e-001 7.599065e-001 6.816715e-001 5.069119e-001 7.936536e-001 6.122265e-001 5.933158e-001 6.054572e-001 5.811151e-001 5.037547e-001 4.218248e-001 5.197052e-001
<GCONST> 1.078550e+002
<STATE> 4
<NUMMIXES> 8
<MIXTURE> 1 1.577532e-001
<MEAN> 39
 -8.777721e+000 7.364767e-001 -1.960469e+000 -3.068977e+000 -2.659146e+000 -3.472748e+000 -5.726600e+000 -6.496814e+000 -6.680953e+000 -4.668763e+000 -4.712675e+000 -3.819238e+000 4.525879e+001 -1.809605e-001 -2.974707e+000 -1.149538e+000 -2.729492e+000 -1.629251e+000 -7.343008e-001 -8.931993e-002 1.429322e+000 1.657839e+000 1.101647e+000 9.794707e-001 8.369617e-001 4.366559e+000 6.561820e-001 -6.464663e-001 -4.052443e-001 -8.419093e-001 -6.029090e-001 -6.880679e-002 -3.735444e-001 2.164828e-001 1.319503e-001 2.997432e-001 3.715485e-001 3.569014e-002 8.876333e-001
<VARIANCE> 39
 2.455775e+001 1.915894e+001 2.300470e+001 3.631065e+001 2.389160e+001 2.920691e+001 2.861517e+001 2.264327e+001 2.320078e+001 2.647889e+001 2.549993e+001 1.886321e+001 3.349107e+001 5.217240e+000 4.236154e+000 4.739620e+000 6.243421e+000 4.779546e+000 4.710582e+000 6.212489e+000 5.506144e+000 4.731632e+000 3.927657e+000 3.635944e+000 2.942531e+000 6.924928e+000 5.456935e-001 5.556092e-001 7.297262e-001 8.520831e-001 7.915381e-001 8.407227e-001 8.960301e-001 7.892439e-001 8.016627e-001 7.535514e-001 6.669062e-001 4.942642e-001 4.095903e-001
<GCONST> 1.291168e+002
<MIXTURE> 2 9.901547e-002
<MEAN> 39
 -2.056058e+000 -1.516521e+001 -6.140278e+000 -1.431352e+001 -1.161691e+001 -1.044074e+001 -1.037618e+001 1.871943e+000 1.083894e+000 2.936332e+000 -3.534585e+000 -5.220321e+000 6.517071e+001 1.398771e+000 -3.627914e+000 -4.462883e-001 -2.575306e+000 -1.871503e+000 -7.374200e-001 -3.655960e-002 2.370366e+000 9.591548e-001 3.976972e-001 -1.068092e+000 -3.752617e-001 3.782977e+000 -5.588303e-001 1.226914e+000 3.976943e-001 1.138944e+000 8.407068e-001 7.726781e-001 5.241651e-001 -5.834132e-001 -7.608323e-001 -7.716736e-001 -1.942970e-001 2.034199e-002 -1.857320e+000
<VARIANCE> 39
 8.594840e+000 2.237099e+001 5.402300e+001 4.747870e+001 4.083240e+001 5.564155e+001 7.887522e+001 5.135728e+001 5.735790e+001 4.640720e+001 5.002938e+001 3.501815e+001 1.688998e+001 2.427165e+000 2.818479e+000 3.799170e+000 4.191417e+000 5.345012e+000 4.787571e+000 8.362770e+000 5.485621e+000 5.775874e+000 5.105906e+000 4.599857e+000 3.832483e+000 3.946137e+000 3.038099e-001 2.458543e-001 4.093248e-001 4.530724e-001 4.123495e-001 5.183304e-001 7.747265e-001 6.375071e-001 5.750778e-001 5.613403e-001 5.336906e-001 5.340969e-001 2.269683e-001
<GCONST> 1.279916e+002
<MIXTURE> 3 9.054342e-002
<MEAN> 39
 1.076790e+000 -8.819319e+000 -9.820348e+000 -2.246468e+001 -1.553656e+001 7.547446e+000 -6.527243e+000 -6.831721e+000 -2.654379e+000 9.459515e-001 5.614841e+000 -3.464857e+000 6.163965e+001 2.396018e+000 -2.151212e+000 -1.131526e+000 -4.023685e+000 -2.499324e+000 3.069338e+000 -5.563170e-001 -2.208653e-001 7.759997e-001 3.900285e-001 1.184714e+000 -1.436772e+000 2.782731e+000 -8.641103e-001 6.684859e-001 5.368412e-001 1.531165e+000 1.158954e+000 -4.032473e-001 3.296611e-001 2.307180e-001 -1.726037e-001 -4.776837e-001 -8.687972e-001 -1.974377e-001 -1.596310e+000
<VARIANCE> 39
 6.776594e+000 3.609087e+001 2.573975e+001 4.015480e+001 3.086100e+001 3.270465e+001 5.461319e+001 4.467160e+001 4.239577e+001 4.245571e+001 4.052473e+001 3.675530e+001 1.950247e+001 2.175336e+000 4.746443e+000 2.604059e+000 5.572587e+000 4.792655e+000 3.975838e+000 5.317742e+000 4.971916e+000 4.638791e+000 4.699344e+000 4.240062e+000 3.906864e+000 3.997739e+000 3.723538e-001 3.374344e-001 2.725425e-001 4.585692e-001 3.560670e-001 5.509514e-001 4.544512e-001 5.512446e-001 5.773164e-001 4.661354e-001 4.740497e-001 4.478693e-001 2.533078e-001
<GCONST> 1.237106e+002
<MIXTURE> 4 1.317926e-001
<MEAN> 39
 -9.406404e+000 -6.949502e+000 1.429982e+000 -3.008991e+000 -1.003241e+001 -1.312322e+001 -7.905408e+000 -4.634246e-001 -3.678480e+000 -4.442866e+000 -1.915331e+000 -6.617582e-001 5.651251e+001 1.287889e+000 -3.068583e+000 2.911709e+000 -2.560237e+000 -4.799579e+000 -2.448385e+000 -1.163622e+000 1.083610e+000 -1.527085e+000 -1.362622e-001 8.863677e-001 8.306764e-001 5.467263e+000 1.567074e-001 5.984107e-001 4.037718e-001 -2.757221e-001 -1.095794e-001 8.507853e-001 -1.079390e-001 -5.566431e-001 -7.025827e-001 2.504612e-001 2.676403e-002 -3.495110e-001 -9.919105e-001
<VARIANCE> 39
 2.278812e+001 1.474695e+001 2.547893e+001 2.377542e+001 3.085717e+001 2.537412e+001 3.907788e+001 2.625813e+001 3.607368e+001 2.236798e+001 1.952271e+001 1.620638e+001 2.666958e+001 4.072681e+000 3.894939e+000 3.811740e+000 5.857358e+000 4.041485e+000 4.991815e+000 6.648489e+000 7.662298e+000 6.509312e+000 6.606030e+000 3.997601e+000 3.271050e+000 4.311202e+000 4.461688e-001 4.449505e-001 4.641339e-001 6.013663e-001 7.774199e-001 7.032936e-001 8.559512e-001 7.356288e-001 8.185248e-001 5.902234e-001 7.215035e-001 4.485973e-001 6.691502e-001
<GCONST> 1.276128e+002
<MIXTURE> 5 1.173629e-001
<MEAN> 39
 -1.450517e+001 -6.022605e+000 -5.079640e+000 -4.999928e+000 -2.521249e+000 -3.881184e+000 -3.543428e+000 -2.372352e+000 -1.634601e+000 -1.689459e+000 -2.747094e+000 -1.959447e+000 5.151714e+001 1.089797e+000 -3.514146e+000 -2.503957e+000 -3.849821e+000 -1.952088e+000 -9.900334e-001 -5.154592e-001 1.214270e+000 2.001464e+000 1.786550e+000 1.442767e+000 9.267461e-001 5.986690e+000 1.619086e+000 4.961617e-001 -1.713849e-001 -6.709949e-001 -6.450739e-001 4.915920e-002 -6.963368e-001 -5.118614e-001 -6.705074e-001 -1.878058e-001 3.929238e-002 -1.180692e-001 -1.267821e-001
<VARIANCE> 39
 1.332711e+001 1.403525e+001 1.534608e+001 1.648754e+001 1.645275e+001 1.949227e+001 1.937149e+001 2.007998e+001 2.059034e+001 1.974991e+001 1.901486e+001 1.347234e+001 3.404587e+001 3.434556e+000 2.356445e+000 4.063563e+000 5.339137e+000 3.942122e+000 4.248265e+000 5.052561e+000 4.985197e+000 3.406251e+000 3.220523e+000 2.855708e+000 2.421872e+000 2.977220e+000 3.864461e-001 6.646604e-001 8.470203e-001 1.032936e+000 7.933500e-001 1.082807e+000 1.094030e+000 9.751260e-001 9.053099e-001 8.628130e-001 8.008995e-001 6.409708e-001 5.431588e-001
<GCONST> 1.227861e+002
<MIXTURE> 6 1.852089e-001
<MEAN> 39
 -8.080602e+000 -4.945904e+000 -8.292093e+000 -9.861335e+000 -6.382138e+000 -5.735340e+000 -6.419178e+000 -4.318777e+000 -1.437514e+000 3.371472e-001 -4.775382e-001 -1.333835e+000 5.731416e+001 3.321647e+000 -2.963465e+000 -2.490021e+000 -4.646910e+000 -2.567806e+000 -3.058670e-001 -1.551114e+000 3.799068e-001 1.289659e+000 1.227924e+000 9.168760e-001 -9.226171e-002 5.817751e+000 4.385575e-001 2.461221e-001 1.752964e-001 1.359235e-001 5.117061e-002 5.912248e-001 -3.410441e-002 1.300016e-002 -3.646002e-001 -3.545775e-001 -2.358977e-001 -3.011267e-001 -1.057832e+000
<VARIANCE> 39
 1.676976e+001 1.282817e+001 1.478381e+001 2.131574e+001 1.963069e+001 2.367999e+001 2.349409e+001 2.450543e+001 2.185211e+001 2.195247e+001 1.880283e+001 1.674503e+001 2.050706e+001 3.724509e+000 5.980114e+000 4.785977e+000 7.374756e+000 5.590529e+000 7.924304e+000 8.468786e+000 7.801201e+000 6.833063e+000 5.547622e+000 5.422406e+000 4.449430e+000 4.961100e+000 4.604983e-001 6.094317e-001 4.198820e-001 6.211492e-001 6.297892e-001 6.657166e-001 7.734140e-001 8.585946e-001 7.343704e-001 6.458297e-001 5.479324e-001 4.912243e-001 5.950682e-001
<GCONST> 1.268429e+002
<MIXTURE> 7 1.245955e-001
<MEAN> 39
 -1.582051e+001 -6.943797e+000 -5.666722e+000 -6.300858e+000 -4.768535e+000 -4.655757e+000 -1.800283e+000 4.124148e-001 2.132315e-001 -1.651684e-001 -8.159708e-001 1.501887e-001 5.126827e+001 3.825036e+000 -1.779210e+000 -5.209895e-001 -2.898712e+000 -2.247510e+000 -2.430131e+000 -1.720540e+000 -5.366818e-001 -6.941632e-001 -1.921127e-001 -5.144141e-001 -2.818775e-001 6.638124e+000 1.001058e+000 1.919470e-001 1.012797e-001 -2.660955e-001 -2.609026e-001 -2.626926e-002 -6.642697e-001 -3.610767e-001 -6.000617e-001 -1.146794e-001 -2.660594e-001 -2.794391e-001 -4.829613e-001
<VARIANCE> 39
 9.873770e+000 1.632165e+001 1.425038e+001 1.630530e+001 2.025245e+001 1.857916e+001 2.376526e+001 1.864335e+001 2.119545e+001 2.288058e+001 1.858060e+001 1.716508e+001 4.176454e+001 2.789176e+000 2.819698e+000 5.789260e+000 5.299963e+000 4.203699e+000 4.801382e+000 4.203788e+000 3.730045e+000 3.640679e+000 3.185340e+000 3.815355e+000 2.414624e+000 5.148324e+000 4.713846e-001 7.568664e-001 8.891875e-001 6.999859e-001 7.134555e-001 8.721781e-001 9.582412e-001 9.376877e-001 9.465053e-001 8.448049e-001 8.967417e-001 6.125385e-001 9.113244e-001
<GCONST> 1.244646e+002
<MIXTURE> 8 9.370823e-002
<MEAN> 39
 -5.352721e-001 -5.482796e+000 -1.287936e+001 -1.978144e+001 -6.998233e+000 -2.361673e+000 -6.655896e+000 -6.737648e+000 -5.449565e+000 1.852058e+000 7.364995e-001 -1.639913e+000 5.851771e+001 2.206096e+000 -2.175477e+000 -2.376984e+000 -4.713174e+000 -6.097332e-001 4.870805e-001 -4.309506e-001 4.514304e-001 7.899110e-001 1.724030e+000 2.240261e-001 -2.185977e-001 3.594971e+000 -4.464134e-001 3.288927e-001 6.172463e-001 1.095195e+000 4.374352e-001 1.734060e-001 6.878057e-002 8.027609e-002 -1.460640e-001 -4.803955e-001 -5.233091e-001 -3.374190e-001 -1.112553e+000
<VARIANCE> 39
 9.875194e+000 1.982494e+001 2.967744e+001 5.886269e+001 2.548376e+001 3.136717e+001 5.733593e+001 3.184558e+001 3.807761e+001 4.522890e+001 5.561513e+001 3.289283e+001 2.270412e+001 3.352674e+000 5.801001e+000 4.809484e+000 8.123512e+000 4.413437e+000 4.481424e+000 7.028046e+000 6.750967e+000 7.098839e+000 5.324585e+000 5.981698e+000 4.559450e+000 6.132738e+000 3.513214e-001 3.366724e-001 3.541579e-001 6.998414e-001 4.161772e-001 4.097549e-001 4.690940e-001 5.421830e-001 6.677387e-001 5.845196e-001 5.373344e-001 4.471454e-001 6.377785e-001
<GCONST> 1.294440e+002
<TRANSP> 5
 0.000000e+000 1.000000e+000 0.000000e+000 0.000000e+000 0.000000e+000
 0.000000e+000 6.373202e-001 3.626798e-001 0.000000e+000 0.000000e+000
 0.000000e+000 0.000000e+000 4.925510e-001 5.074490e-001 0.000000e+000
 0.000000e+000 0.000000e+000 0.000000e+000 5.896419e-001 4.103581e-001
 0.000000e+000 0.000000e+000 0.000000e+000 0.000000e+000 0.000000e+000
<ENDHMM>
~h "d"
<BEGINHMM>
<NUMSTATES> 5
<STATE> 2
<NUMMIXES> 8
<MIXTURE> 1 1.010506e-001
<MEAN> 39
 -1.019500e+001 6.653049e+000 3.490242e+000 4.364474e+000 -2.183877e+000 -4.354816e+000 -7.059067e+000 -6.377517e+000 -6.923534e+000 -6.081854e+000 -6.374209e+000 -4.115029e+000 3.553880e+001 -1.947237e+000 -1.207988e+000 -9.323708e-001 -6.890283e-001 1.603541e+000 2.164705e+000 1.166103e+000 3.681375e-001 3.895476e-001 6.298289e-001 5.698263e-001 3.410055e-002 -1.372319e-001 -9.153105e-002 -1.858940e+000 -5.269656e-001 -1.460951e+000 -1.033278e+000 -4.761246e-001 1.151888e-001 7.067096e-001 4.856705e-001 4.222726e-001 5.679570e-001 5.332187e-001 2.353472e+000
<VARIANCE> 39
 4.724179e+000 3.322090e+000 7.193759e+000 9.870477e+000 1.391249e+001 1.623404e+001 1.489728e+001 1.612407e+001 1.593575e+001 1.361641e+001 1.203980e+001 1.311490e+001 2.309691e+000 1.573482e+000 5.133574e+000 2.370692e+000 4.291811e+000 3.458881e+000 3.179611e+000 3.040159e+000 3.037324e+000 2.928020e+000 2.405834e+000 2.303318e+000 2.087487e+000 6.077378e+000 3.032811e-001 6.976817e-001 4.524007e-001 7.213402e-001 5.275609e-001 4.947698e-001 5.982869e-001 5.443888e-001 5.685641e-001 5.108580e-001 4.275953e-001 3.958072e-001 1.121436e+000
<GCONST> 1.071943e+002
<MIXTURE> 2 1.665424e-001
<MEAN> 39
 -4.648804e+000 -4.303596e+000 -2.943075e+000 -4.743087e+000 -1.040929e+001 -7.397064e+000 -7.557523e+000 -7.856015e+000 -6.139772e+000 -1.808445e+000 -5.431216e+000 -3.947444e+000 5.167698e+001 -1.303612e+000 2.206836e-001 4.534588e-001 6.734971e-001 1.228514e+000 3.207728e-002 -3.280924e-002 4.722487e-001 4.132552e-001 -5.447271e-001 5.510737e-002 2.572631e-001 -7.709520e-001 -1.701187e-001 -4.368230e-001 -6.687821e-002 -7.107190e-001 -1.417438e-001 5.958160e-002 -1.367881e-001 7.445077e-001 2.800174e-001 7.551194e-003 3.102502e-001 1.600510e-001 7.578654e-001
<VARIANCE> 39
 1.987825e+001 4.770288e+001 4.719108e+001 6.218311e+001 6.343884e+001 5.442552e+001 5.708628e+001 6.628499e+001 6.909340e+001 4.900146e+001 4.806547e+001 3.892846e+001 4.071699e+001 3.310379e+000 5.052863e+000 4.255747e+000 7.059753e+000 6.045236e+000 5.479429e+000 6.878927e+000 8.030231e+000 7.027219e+000 4.774947e+000 4.989784e+000 3.901991e+000 5.448320e+000 4.591025e-001 5.214133e-001 5.533655e-001 8.433524e-001 9.609794e-001 8.542443e-001 1.063716e+000 1.062196e+000 9.944122e-001 8.431933e-001 8.056644e-001 6.166773e-001 6.319644e-001
<GCONST> 1.405772e+002
<MIXTURE> 3 1.531232e-001
<MEAN> 39
 -5.483840e+000 2.914981e-002 2.742329e+000 4.279030e+000 -7.857190e+000 -1.044915e+001 -8.185517e+000 -2.687684e+000 -4.433635e+000 -7.196738e+000 -8.102850e+000 -4.102523e+000 4.258441e+001 -1.292162e+000 3.995015e+000 4.053889e-001 1.772885e+000 2.480620e+000 1.566854e+000 1.331626e+000 -1.551407e+000 -6.770544e-001 2.603059e-001 -1.162322e+000 -1.103976e+000 -4.586518e+000 -1.997595e-001 -1.081213e+000 -2.471494e-001 -1.266105e+000 -3.489005e-001 2.797035e-001 -3.851813e-001 2.834786e-001 4.445940e-002 3.130046e-001 7.791260e-001 3.370936e-001 1.567243e+000
<VARIANCE> 39
 5.633533e+000 2.277160e+001 2.743795e+001 3.649317e+001 4.297584e+001 3.490953e+001 3.824479e+001 3.293544e+001 3.742464e+001 3.037034e+001 2.765217e+001 2.552842e+001 1.093958e+001 1.458316e+000 2.559129e+000 4.284142e+000 4.604358e+000 4.904136e+000 4.126253e+000 4.709021e+000 3.864089e+000 4.409254e+000 4.088553e+000 3.357149e+000 2.844078e+000 2.409979e+000 2.182836e-001 6.511241e-001 4.670373e-001 6.383631e-001 8.307633e-001 6.660445e-001 9.871534e-001 7.646340e-001 7.295119e-001 6.881731e-001 5.725962e-001 4.814458e-001 6.509523e-001
<GCONST> 1.236742e+002
<MIXTURE> 4 1.006835e-001
<MEAN> 39
 -2.090029e+001 -9.635847e-001 -4.190138e+000 -1.791446e+000 -6.359773e-001 1.617773e-001 -6.901079e-001 2.670282e-001 -8.201029e-001 9.029388e-001 -4.928431e-001 -2.304915e-001 3.574865e+001 6.198449e-001 -1.497991e+000 -8.606343e-002 -1.181717e+000 -3.516261e-001 -3.763448e-001 -1.854573e-001 6.959087e-002 2.229447e-002 -9.228858e-002 8.077505e-002 1.011950e-001 2.128734e+000 3.557574e-001 -3.050871e-001 2.862349e-002 -7.546661e-001 -5.754547e-001 -7.407266e-001 -3.757568e-001 -1.025091e-001 -1.157923e-001 -2.270561e-001 -1.397296e-001 -1.699909e-002 2.085210e+000
<VARIANCE> 39
 2.171878e+001 1.944901e+001 2.063061e+001 2.372632e+001 1.849849e+001 1.772179e+001 1.768270e+001 2.023068e+001 1.604951e+001 1.535532e+001 1.411121e+001 1.297363e+001 3.729048e+001 3.368075e+000 2.916707e+000 3.516442e+000 5.287929e+000 3.000425e+000 3.434920e+000 2.831411e+000 2.740846e+000 2.426208e+000 2.249669e+000 1.977161e+000 1.654636e+000 1.887532e+001 5.530632e-001 4.633632e-001 5.091144e-001 5.871503e-001 5.428260e-001 5.292796e-001 5.642716e-001 5.270055e-001 4.570623e-001 4.208348e-001 3.691508e-001 3.451827e-001 1.108462e+000
<GCONST> 1.166995e+002
<MIXTURE> 5 1.229095e-001
<MEAN> 39
 -8.007545e+000 5.490586e+000 2.708259e+000 -1.740184e+000 -8.821840e+000 -8.575875e+000 -8.666646e+000 -8.938068e+000 -1.060372e+001 -8.384252e+000 -9.070899e+000 -5.854826e+000 4.002286e+001 -1.816074e+000 1.148939e+000 -2.897479e-001 1.566371e+000 2.817396e+000 1.886870e+000 -7.685837e-002 -3.632053e-001 3.022231e-001 -4.651850e-001 -1.090166e-001 -9.379035e-001 -2.395545e+000 -4.837047e-001 -1.930557e+000 -5.170972e-001 -1.543229e+000 -3.011622e-001 -3.745349e-003 4.358269e-001 9.944898e-001 6.464847e-001 9.336590e-001 7.288102e-001 6.960095e-001 2.361205e+000
<VARIANCE> 39
 1.168720e+001 1.058723e+001 2.048427e+001 3.085117e+001 3.580919e+001 3.041284e+001 2.929491e+001 3.238084e+001 3.074111e+001 3.116128e+001 3.183269e+001 2.907911e+001 1.310448e+001 2.771262e+000 6.801368e+000 3.639757e+000 7.302223e+000 4.993173e+000 4.845276e+000 5.057186e+000 5.516050e+000 4.730769e+000 4.553154e+000 4.198573e+000 3.830184e+000 8.245811e+000 4.583610e-001 6.008768e-001 5.927281e-001 8.648377e-001 8.981001e-001 8.219442e-001 1.005079e+000 9.399535e-001 7.783998e-001 7.250757e-001 7.659683e-001 6.610407e-001 9.782519e-001
<GCONST> 1.301562e+002
<MIXTURE> 6 1.607174e-001
<MEAN> 39
 -5.665927e+000 -7.412352e+000 4.295735e+000 -8.550364e+000 -1.525051e+001 -1.145261e+001 -1.031301e+001 -1.161391e+000 -5.127898e+000 -4.817948e+000 -3.264515e+000 -4.019223e-001 5.546053e+001 -9.064018e-001 4.077358e+000 2.539455e-001 3.739508e+000 2.977288e+000 1.625353e+000 4.421610e-001 -2.054579e+000 -4.898202e-001 -1.322063e+000 -1.411372e+000 -1.113023e+000 -5.886761e+000 -3.779648e-001 4.672978e-002 -5.156700e-001 -3.776577e-002 5.858436e-001 4.570402e-001 5.372934e-001 9.193132e-002 4.559770e-002 1.938318e-001 -1.041292e-001 -3.094978e-001 -6.698756e-002
<VARIANCE> 39
 1.231591e+001 3.419307e+001 3.299721e+001 4.792869e+001 4.239774e+001 4.327037e+001 4.629839e+001 4.147670e+001 5.046469e+001 3.484517e+001 3.105162e+001 2.914691e+001 4.048153e+001 1.690763e+000 2.805120e+000 3.852555e+000 3.847188e+000 4.335491e+000 4.555746e+000 6.825745e+000 5.212130e+000 4.907248e+000 4.728647e+000 4.017976e+000 3.245391e+000 2.323320e+000 2.582061e-001 6.338942e-001 3.912692e-001 6.874970e-001 6.728173e-001 6.992806e-001 6.779152e-001 6.437269e-001 6.488588e-001 5.810946e-001 5.228626e-001 4.768291e-001 7.564739e-001
<GCONST> 1.281554e+002
<MIXTURE> 7 9.274510e-002
<MEAN> 39
 -1.336576e+001 4.802854e+000 1.661702e+000 3.706541e+000 -1.653874e-001 -1.472682e+000 -5.099576e+000 -5.510126e+000 -6.815414e+000 -6.009545e+000 -6.311193e+000 -4.719461e+000 3.430664e+001 -2.081343e+000 -4.198962e+000 -1.796624e+000 -3.389563e+000 -3.301521e-001 9.318337e-001 1.235745e+000 1.698802e+000 1.653936e+000 1.635507e+000 1.905520e+000 1.351508e+000 4.314970e+000 5.375597e-001 -1.009349e+000 -1.912723e-001 -1.177722e+000 -1.362170e+000 -1.118620e+000 -3.494558e-001 4.241362e-001 3.272989e-001 3.460123e-001 3.062443e-001 4.020221e-001 2.375500e+000
<VARIANCE> 39
 1.038040e+001 6.894930e+000 9.259005e+000 1.003737e+001 1.228332e+001 1.629539e+001 1.746317e+001 1.875136e+001 1.656040e+001 1.612028e+001 1.410346e+001 1.307590e+001 3.828854e+000 1.827686e+000 3.050117e+000 2.596400e+000 4.009130e+000 4.153789e+000 4.030981e+000 3.721736e+000 3.462392e+000 3.191756e+000 3.046242e+000 2.589827e+000 2.319668e+000 8.168818e+000 4.072972e-001 5.922112e-001 4.750846e-001 6.319996e-001 5.965010e-001 5.777801e-001 7.205459e-001 5.921739e-001 6.102582e-001 4.692798e-001 4.590563e-001 4.442090e-001 7.486473e-001
<GCONST> 1.116479e+002
<MIXTURE> 8 1.022103e-001
<MEAN> 39
 -7.305735e+000 6.313197e+000 3.881453e+000 3.201207e+000 -6.106159e+000 -7.965117e+000 -7.958919e+000 -5.048011e+000 -5.105203e+000 -5.357988e+000 -7.411265e+000 -4.440802e+000 3.809384e+001 -6.397753e-001 8.106949e-001 2.525313e-001 3.196717e-001 9.399308e-001 8.338583e-001 7.811831e-002 -4.205854e-001 -2.030405e-001 1.981805e-001 5.842920e-002 -7.620341e-002 -1.022818e+000 -3.234643e-001 -1.271829e+000 -3.850831e-001 -7.003325e-001 -1.152234e-001 2.386016e-001 1.122208e-001 3.102546e-001 9.305913e-002 9.584361e-002 4.336432e-001 2.986741e-001 1.181327e+000
<VARIANCE> 39
 4.455848e+000 8.667464e+000 1.141220e+001 2.070951e+001 2.341895e+001 2.344070e+001 2.398524e+001 2.513059e+001 2.338754e+001 2.152411e+001 2.064122e+001 1.966927e+001 4.317827e+000 1.113904e+000 1.671722e+000 1.312466e+000 1.684103e+000 2.453373e+000 2.660896e+000 2.080145e+000 2.067487e+000 1.983111e+000 1.975818e+000 1.688420e+000 1.666060e+000 1.392484e+000 2.130795e-001 6.419809e-001 3.237260e-001 5.856879e-001 4.877594e-001 4.122675e-001 5.161031e-001 4.802965e-001 4.352966e-001 4.586022e-001 4.319208e-001 3.960817e-001 9.571854e-001
<GCONST> 1.046054e+002
<STATE> 3
<NUMMIXES> 8
<MIXTURE> 1 1.084735e-001
<MEAN> 39
 -2.028683e+001 -1.713942e+000 -4.773521e+000 -3.306991e-001 -9.236166e-001 7.951952e-001 -8.251186e-001 6.528280e-001 -3.810119e-002 9.493588e-001 -2.049589e-002 3.985187e-002 3.118840e+001 1.275166e-001 -2.357009e+000 -4.731724e-001 -2.890912e+000 -8.841832e-001 -8.559125e-001 -1.444941e-001 3.241979e-001 2.092392e-001 2.919226e-001 5.428162e-001 5.601399e-001 5.487201e+000 6.746759e-001 -3.385326e-002 2.721805e-001 -8.055895e-001 -7.975615e-001 -1.006042e+000 -6.093378e-001 -2.621770e-001 -3.515999e-001 -3.448649e-001 -3.899153e-001 -1.803440e-001 2.360623e+000
<VARIANCE> 39
 1.329723e+000 3.423478e+000 4.202820e+000 7.029207e+000 7.258659e+000 8.546777e+000 1.003411e+001 1.155260e+001 1.121769e+001 1.197922e+001 1.066746e+001 1.000898e+001 1.201609e+000 1.853101e+000 3.087581e+000 3.113450e+000 4.227932e+000 2.742723e+000 3.432012e+000 3.466249e+000 3.359672e+000 3.179389e+000 3.136152e+000 2.736549e+000 2.218699e+000 1.351071e+001 5.960039e-001 3.779703e-001 3.937764e-001 5.383147e-001 5.093908e-001 4.747974e-001 5.326694e-001 5.281746e-001 5.285134e-001 4.405159e-001 3.997110e-001 3.615082e-001 7.381441e-001
<GCONST> 1.015149e+002
<MIXTURE> 2 1.404583e-001
<MEAN> 39
 -1.679696e+001 -8.721625e+000 -4.800892e+000 -7.079290e+000 -2.838284e+000 -2.212549e+000 -2.127784e+000 -1.240083e+000 -2.818672e+000 -9.374262e-001 -1.825431e+000 -1.272866e+000 4.920364e+001 -1.987370e+000 -2.622295e+000 -1.519625e+000 -2.870430e+000 -7.905439e-001 -3.379137e-001 9.681575e-001 1.200736e+000 1.214208e+000 1.140564e+000 1.362477e+000 1.130835e+000 5.063698e+000 6.390720e-001 8.229338e-001 5.923418e-001 1.547766e-001 -8.084447e-001 -7.806140e-001 -5.169667e-001 -2.457594e-001 -2.047394e-001 -2.856050e-001 -2.971464e-001 -1.872289e-002 2.607092e-001
<VARIANCE> 39
 3.634383e+001 4.682678e+001 4.597533e+001 4.942274e+001 3.889471e+001 2.954533e+001 2.859729e+001 2.309572e+001 2.201941e+001 1.901641e+001 1.566446e+001 1.353069e+001 4.664403e+001 5.112794e+000 3.685169e+000 3.797173e+000 4.343211e+000 4.611293e+000 4.816375e+000 3.941496e+000 4.329966e+000 3.885521e+000 3.713950e+000 3.058517e+000 2.603654e+000 6.289770e+000 8.552010e-001 8.802676e-001 7.900454e-001 9.627211e-001 1.238423e+000 8.212094e-001 8.651876e-001 7.471196e-001 7.542487e-001 5.955736e-001 5.171856e-001 4.412025e-001 9.155474e-001
<GCONST> 1.305376e+002
<MIXTURE> 3 1.339631e-001
<MEAN> 39
 -5.082037e+000 -5.985636e+000 -2.386439e+000 -5.681759e+000 -1.073925e+001 -8.336210e+000 -8.866027e+000 -5.756791e+000 -4.857676e+000 -2.465191e+000 -4.836964e+000 -2.986148e+000 5.371901e+001 -7.042229e-001 2.676677e-001 2.464574e-001 -3.392435e-002 6.058303e-001 2.646844e-001 -2.347068e-001 6.208867e-001 6.508789e-002 -3.710262e-001 3.640358e-001 2.638428e-001 -3.137012e-001 -1.682419e-002 -2.893310e-001 -1.448412e-001 -5.324615e-001 -1.747127e-001 1.363739e-001 3.267891e-002 5.124675e-001 9.011195e-002 1.053005e-001 2.011294e-001 3.299238e-003 5.148200e-001
<VARIANCE> 39
 2.080474e+001 4.662380e+001 4.903873e+001 5.486509e+001 5.266790e+001 5.069936e+001 5.440675e+001 6.265370e+001 6.396406e+001 4.599044e+001 4.398383e+001 3.441984e+001 4.231702e+001 3.142437e+000 3.520606e+000 3.488521e+000 4.157779e+000 5.216915e+000 4.319162e+000 5.215623e+000 5.936996e+000 5.421809e+000 3.887842e+000 3.494119e+000 3.333392e+000 3.922766e+000 3.814501e-001 4.320149e-001 4.848582e-001 7.388925e-001 7.386323e-001 7.811936e-001 1.000226e+000 1.050236e+000 9.292165e-001 7.767585e-001 7.649301e-001 5.611746e-001 4.375278e-001
<GCONST> 1.346979e+002
<MIXTURE> 4 1.125603e-001
<MEAN> 39
 -1.643912e+001 -1.334275e+001 -5.593875e-001 -1.172265e+001 -6.639331e+000 -6.050518e-001 -4.397267e+000 1.196448e-001 -1.268718e+000 -1.727299e+000 4.690573e-001 1.200465e+000 5.776121e+001 1.431573e+000 -3.155536e+000 -2.513891e-001 -3.692622e+000 -2.884387e+000 -2.258194e+000 -1.905756e+000 1.565331e+000 1.164503e+000 6.442677e-001 7.639133e-001 5.249410e-001 7.822986e+000 1.429606e+000 8.867353e-001 -2.163057e-001 8.766401e-001 -4.951758e-001 -9.170130e-001 -7.613495e-001 1.830147e-002 -1.348318e-001 2.224227e-003 -6.052680e-001 -7.321128e-001 -8.298111e-001
<VARIANCE> 39
 1.110992e+001 1.960258e+001 1.827538e+001 3.001322e+001 3.385222e+001 3.415200e+001 2.971076e+001 3.303657e+001 2.958297e+001 2.344900e+001 2.179477e+001 1.790903e+001 3.080996e+001 2.990852e+000 2.841592e+000 2.836863e+000 2.692948e+000 2.646314e+000 3.177593e+000 4.455687e+000 3.687080e+000 3.657880e+000 3.231025e+000 3.219016e+000 2.366866e+000 2.600746e+000 3.576162e-001 5.427696e-001 6.809222e-001 7.282322e-001 1.046740e+000 1.122442e+000 1.034559e+000 1.112239e+000 1.077082e+000 8.633927e-001 9.344764e-001 6.717283e-001 6.605178e-001
<GCONST> 1.248121e+002
<MIXTURE> 5 1.175377e-001
<MEAN> 39
 -1.104747e+001 -8.419728e+000 1.472740e+000 -6.709339e+000 -6.420442e+000 -3.481041e+000 -7.000207e+000 -3.525759e+000 -5.119261e+000 -5.370381e+000 -4.415060e+000 -2.417715e+000 5.245165e+001 -8.013808e-001 -3.225642e+000 3.842267e-002 -3.347499e+000 -1.280944e+000 -4.374965e-001 -9.273913e-001 2.090656e+000 1.505467e+000 5.993885e-001 1.594899e+000 1.217527e+000 5.027320e+000 8.857844e-001 -3.936362e-002 -1.822122e-001 -1.801176e-001 -9.696979e-001 -7.757367e-001 -3.707802e-001 3.190774e-001 5.076717e-002 4.096452e-001 5.906208e-002 -7.435671e-002 5.492814e-001
<VARIANCE> 39
 1.524404e+001 3.055588e+001 2.807326e+001 5.031166e+001 4.471270e+001 4.874658e+001 3.884779e+001 3.240862e+001 3.411560e+001 2.085088e+001 2.059326e+001 2.036648e+001 3.632686e+001 2.329112e+000 2.794440e+000 3.092633e+000 3.778866e+000 5.071039e+000 4.907063e+000 5.947651e+000 6.091644e+000 5.672675e+000 4.653268e+000 3.882376e+000 3.001287e+000 3.946899e+000 3.443376e-001 6.037769e-001 7.007541e-001 9.857340e-001 1.223339e+000 1.309775e+000 1.435706e+000 1.170029e+000 1.068851e+000 7.537331e-001 9.416513e-001 7.554755e-001 5.356834e-001
<GCONST> 1.322035e+002
<MIXTURE> 6 1.413532e-001
<MEAN> 39
 -6.406740e+000 3.194642e+000 2.660855e+000 3.491649e+000 -5.279759e+000 -7.779229e+000 -9.538007e+000 -6.131168e+000 -4.504939e+000 -4.690672e+000 -8.575833e+000 -6.032444e+000 4.042143e+001 -1.706171e+000 -1.851873e+000 -4.124818e-001 -2.251308e+000 2.381257e-001 1.382379e+000 7.996116e-001 2.384428e-001 -1.000430e-001 3.938138e-001 1.198750e+000 9.726731e-001 2.396189e+000 3.473935e-002 -1.498611e+000 -2.629200e-001 -1.324694e+000 -1.078251e+000 -3.028698e-001 -3.071825e-001 5.950583e-001 2.348045e-001 1.423193e-001 8.161461e-001 5.313243e-001 2.341209e+000
<VARIANCE> 39
 6.525748e+000 1.954898e+001 2.665195e+001 3.090771e+001 3.731935e+001 3.029650e+001 3.273190e+001 3.773071e+001 3.219666e+001 2.932300e+001 2.756276e+001 2.305121e+001 8.010889e+000 1.851929e+000 5.973779e+000 3.653994e+000 4.686453e+000 5.316836e+000 5.129109e+000 5.087247e+000 5.301194e+000 4.929163e+000 3.379533e+000 3.633343e+000 2.784772e+000 6.941585e+000 4.385730e-001 5.444545e-001 6.120220e-001 6.943023e-001 7.901575e-001 7.466642e-001 1.010202e+000 1.035129e+000 8.431867e-001 7.357870e-001 6.531876e-001 5.538167e-001 6.012798e-001
<GCONST> 1.269098e+002
<MIXTURE> 7 1.077261e-001
<MEAN> 39
 -2.040017e+001 -6.916588e+000 -6.945702e+000 -1.285697e+001 -2.739497e+000 -5.392446e+000 -5.124814e-001 -9.185792e-001 -2.178982e+000 6.949434e-001 1.739856e-001 4.376920e-001 5.903334e+001 1.967072e+000 -4.757870e-001 4.351366e-001 -2.886309e+000 -3.036437e+000 -3.811818e+000 -1.167565e+000 -4.993664e-001 -8.672305e-001 -6.584052e-001 -8.062086e-001 2.699225e-001 7.278168e+000 1.284694e+000 1.591247e-001 6.570331e-001 6.826956e-001 -8.924351e-001 -2.765037e-001 -7.719536e-001 8.797412e-002 -1.719381e-001 -2.666810e-001 -5.680841e-001 -2.224338e-001 -1.294403e+000
<VARIANCE> 39
 1.188685e+001 1.837445e+001 2.944393e+001 2.230426e+001 2.571229e+001 2.350724e+001 2.660824e+001 2.908594e+001 2.410643e+001 2.196496e+001 2.023212e+001 1.714339e+001 3.121871e+001 2.989023e+000 2.447995e+000 2.863693e+000 3.413693e+000 3.389005e+000 2.465852e+000 3.291327e+000 3.210738e+000 3.120057e+000 2.880492e+000 2.582852e+000 2.200446e+000 4.144396e+000 3.486372e-001 5.659881e-001 9.525906e-001 9.476776e-001 7.926440e-001 8.102458e-001 8.634673e-001 9.144590e-001 9.406377e-001 8.148471e-001 8.531844e-001 5.857029e-001 9.106211e-001
<GCONST> 1.228170e+002
<MIXTURE> 8 1.379230e-001
<MEAN> 39
 -1.222786e+001 1.195007e+000 2.076211e+000 -2.758148e+000 -4.629313e+000 -5.578052e+000 -7.171466e+000 -6.175117e+000 -8.127657e+000 -6.748952e+000 -5.714703e+000 -4.299418e+000 4.496025e+001 -2.368937e+000 -5.446536e-002 -6.931153e-001 -3.439496e-002 1.854236e+000 1.515793e+000 9.622648e-001 1.423267e-001 7.036256e-001 5.699518e-001 3.851113e-001 -9.591378e-002 -3.408880e-001 2.905048e-001 -1.092592e+000 -2.614630e-001 -1.127362e+000 -1.056424e+000 -3.741106e-001 -4.669332e-002 5.718399e-001 3.345537e-001 6.415331e-001 3.520943e-001 4.344680e-001 1.658520e+000
<VARIANCE> 39
 3.452890e+001 3.904024e+001 4.333861e+001 4.687667e+001 4.694237e+001 4.876862e+001 3.779944e+001 3.800451e+001 3.908110e+001 2.837882e+001 2.898657e+001 2.727307e+001 3.316497e+001 4.449643e+000 6.510971e+000 4.304719e+000 6.345581e+000 4.954060e+000 5.671718e+000 4.816357e+000 6.043909e+000 4.930546e+000 3.947088e+000 3.776718e+000 3.105646e+000 8.885675e+000 8.636944e-001 8.770737e-001 1.031163e+000 1.104043e+000 1.249860e+000 1.169870e+000 1.271351e+000 9.854777e-001 1.022219e+000 8.374689e-001 8.132687e-001 7.261612e-001 7.530265e-001
<GCONST> 1.391788e+002
<STATE> 4
<NUMMIXES> 8
<MIXTURE> 1 1.356518e-001
<MEAN> 39
 -1.873903e+001 -9.421564e+000 -6.709983e+000 -9.808332e+000 -6.153415e+000 -5.835772e+000 -2.061293e+000 4.905559e-001 -9.188781e-001 -7.326068e-001 -3.456155e-001 9.836801e-001 5.504748e+001 -7.901326e-001 1.211767e-001 -2.389908e-001 -4.041311e-001 -1.213184e-001 -8.869441e-001 1.627578e-001 8.746703e-001 7.706462e-001 2.470710e-001 8.377901e-002 3.832546e-001 1.696208e+000 7.548219e-001 1.106962e+000 5.288952e-001 9.441829e-001 1.990142e-001 7.170518e-002 -4.209521e-001 -5.074477e-001 -3.818910e-001 -2.744326e-001 -5.085387e-001 -3.650318e-001 -1.376865e+000
<VARIANCE> 39
 3.395126e+001 3.526498e+001 3.715373e+001 4.237249e+001 3.389943e+001 2.535680e+001 2.888811e+001 2.694641e+001 2.348959e+001 2.106981e+001 1.822197e+001 1.516606e+001 3.256742e+001 5.752656e+000 4.104844e+000 3.695023e+000 4.536032e+000 3.425645e+000 3.384041e+000 3.877224e+000 3.483926e+000 3.084599e+000 2.587687e+000 2.895110e+000 2.390412e+000 7.592311e+000 8.130767e-001 7.929717e-001 8.764350e-001 9.384280e-001 7.898181e-001 6.696249e-001 8.710844e-001 7.136508e-001 6.764463e-001 6.516238e-001 5.800502e-001 4.414627e-001 8.193070e-001
<GCONST> 1.277956e+002
<MIXTURE> 2 1.224115e-001
<MEAN> 39
 -9.879119e+000 -9.733148e+000 7.054945e-001 -1.066714e+001 -1.182514e+001 -8.562060e+000 -1.076395e+001 -6.385132e-001 -5.755000e-002 -2.245832e+000 -1.489466e+000 -4.817107e-002 6.272735e+001 2.472347e+000 -2.289045e+000 -1.036695e+000 -2.486982e+000 -2.686353e+000 -1.978994e+000 -2.628993e+000 2.095839e+000 1.506373e+000 1.187476e+000 8.152655e-001 -5.090041e-001 4.972101e+000 6.679868e-001 7.785469e-001 -5.068629e-001 8.745860e-001 4.098617e-001 2.494938e-001 2.321304e-001 -1.799182e-001 -4.185411e-001 7.067841e-002 -3.948031e-001 -7.513417e-001 -1.703816e+000
<VARIANCE> 39
 1.633039e+001 1.758578e+001 2.007565e+001 2.724935e+001 3.032780e+001 3.761874e+001 3.897578e+001 2.821209e+001 3.411863e+001 2.524126e+001 1.936210e+001 2.039069e+001 1.432957e+001 2.931141e+000 4.077956e+000 4.296785e+000 4.728666e+000 4.774009e+000 5.709144e+000 7.682518e+000 6.375529e+000 5.836623e+000 4.489117e+000 4.994549e+000 4.618329e+000 4.089049e+000 2.815580e-001 4.075047e-001 4.635555e-001 5.693678e-001 8.172215e-001 9.163988e-001 9.217119e-001 8.731858e-001 8.905616e-001 7.816954e-001 7.838504e-001 5.666470e-001 4.292158e-001
<GCONST> 1.275618e+002
<MIXTURE> 3 1.385660e-001
<MEAN> 39
 -1.123234e+001 2.119349e+000 -6.387702e-001 -1.886066e+000 -3.873318e+000 -4.570508e+000 -5.899598e+000 -6.204887e+000 -7.516273e+000 -4.687779e+000 -5.578396e+000 -4.112826e+000 4.291481e+001 -1.906135e+000 -3.959152e-001 -6.730727e-001 -5.185739e-001 8.737243e-001 1.109473e+000 9.643570e-001 5.108381e-001 3.325748e-001 5.533299e-001 9.143834e-001 5.325111e-001 3.453339e-002 1.416317e-001 -8.607966e-001 -4.308929e-002 -5.641420e-001 -7.254328e-001 -4.124620e-001 -1.234450e-001 3.942293e-001 3.251841e-001 2.802156e-001 2.873171e-001 3.043711e-001 1.216544e+000
<VARIANCE> 39
 4.012617e+001 2.946063e+001 4.069189e+001 3.305074e+001 3.658955e+001 3.317178e+001 3.022205e+001 3.464439e+001 3.273221e+001 2.867419e+001 2.694393e+001 2.259717e+001 4.260192e+001 5.569532e+000 4.733070e+000 3.781910e+000 4.415594e+000 4.825176e+000 4.430039e+000 4.491351e+000 5.364693e+000 5.010916e+000 3.642598e+000 3.304651e+000 2.758382e+000 6.618224e+000 5.409269e-001 6.856499e-001 7.323336e-001 8.563998e-001 7.542561e-001 7.897228e-001 7.904817e-001 7.470470e-001 7.388722e-001 7.142217e-001 5.829214e-001 5.330424e-001 9.208639e-001
<GCONST> 1.319613e+002
<MIXTURE> 4 1.590340e-001
<MEAN> 39
 -1.533452e+001 -1.569143e+000 -1.528535e+000 -9.845772e+000 -8.158137e+000 -1.159362e+001 -4.751692e+000 -2.501629e+000 -4.044379e+000 -2.390710e+000 -2.561140e+000 1.428114e-001 6.061177e+001 3.800544e+000 -7.277077e-001 1.099503e+000 -6.269543e-001 -3.604085e+000 -2.767209e+000 -2.593936e+000 1.079023e-001 -1.458707e-001 -3.314475e-001 -7.701042e-001 -1.986102e-001 2.856017e+000 7.410414e-001 -4.682629e-001 -2.940405e-002 5.698255e-001 1.067933e-002 8.277138e-001 -3.210719e-001 2.388167e-001 1.426453e-001 9.247706e-002 -9.462272e-002 -3.451870e-001 -1.679247e+000
<VARIANCE> 39
 2.254627e+001 2.014226e+001 3.809520e+001 2.885728e+001 3.281070e+001 2.954266e+001 3.292445e+001 3.061107e+001 2.819659e+001 2.030245e+001 1.813044e+001 1.620432e+001 1.844828e+001 2.354376e+000 3.686443e+000 5.799018e+000 6.502473e+000 5.077070e+000 5.214189e+000 5.387568e+000 5.104186e+000 5.907788e+000 4.549745e+000 4.663134e+000 4.015679e+000 6.381559e+000 4.826602e-001 5.225031e-001 7.362266e-001 6.854924e-001 7.684603e-001 7.364611e-001 7.459358e-001 7.971706e-001 6.486566e-001 6.403581e-001 6.946219e-001 5.310118e-001 5.744688e-001
<GCONST> 1.284130e+002
<MIXTURE> 5 1.236292e-001
<MEAN> 39
 -6.331856e+000 -1.017859e+001 -1.164796e+000 -1.507547e+001 -1.611668e+001 -1.553020e+001 -8.516090e+000 2.499448e+000 -3.946162e+000 -1.557516e+000 -5.217411e+000 7.197770e-001 6.428342e+001 3.385433e+000 -2.211354e+000 -5.951756e-001 -1.113276e+000 -2.054101e+000 -1.550101e+000 -9.626332e-001 2.118995e+000 9.943330e-002 2.426326e-001 -1.948362e+000 -4.726042e-001 1.433953e+000 -4.287969e-001 1.885046e-001 -5.499194e-001 8.534230e-001 1.410333e+000 1.446801e+000 4.868897e-001 -2.765333e-001 7.315791e-002 -2.470137e-002 -9.941462e-002 -5.433398e-001 -1.677125e+000
<VARIANCE> 39
 8.581104e+000 2.388792e+001 3.388159e+001 4.586969e+001 2.875061e+001 2.863470e+001 4.708546e+001 3.217076e+001 4.092060e+001 2.881731e+001 3.041948e+001 2.253302e+001 1.770401e+001 2.306087e+000 3.366525e+000 5.252667e+000 4.379832e+000 6.326523e+000 6.931747e+000 7.487956e+000 4.981318e+000 5.683668e+000 5.252400e+000 5.457717e+000 4.129046e+000 1.706801e+000 3.056238e-001 4.942702e-001 3.791803e-001 5.012115e-001 6.552472e-001 5.989743e-001 6.107733e-001 7.112934e-001 6.315442e-001 5.941945e-001 5.540318e-001 4.231659e-001 4.888758e-001
<GCONST> 1.260268e+002
<MIXTURE> 6 1.060854e-001
<MEAN> 39
 -3.213801e+000 -1.191753e+001 -2.032824e+000 -7.482508e+000 -1.435731e+001 -8.214025e+000 -1.346263e+001 -1.097159e+000 6.133878e-001 -2.735675e+000 -3.067177e+000 -2.495703e+000 5.969993e+001 6.771460e-001 -1.275883e+000 -1.632769e-002 -1.413413e+000 -1.052572e+000 -1.275543e-001 -1.109016e+000 1.982163e+000 6.163913e-001 1.014022e-002 8.754301e-001 1.655029e-001 1.722000e+000 7.823265e-002 2.827620e-001 -2.170583e-001 -7.565888e-002 2.007373e-001 6.313748e-002 4.060068e-001 -9.624371e-002 -4.403627e-001 1.013818e-001 -1.712825e-002 -1.519955e-001 -2.571262e-001
<VARIANCE> 39
 1.338162e+001 2.690503e+001 5.871871e+001 5.178199e+001 5.436436e+001 4.564293e+001 5.547769e+001 6.188893e+001 5.326413e+001 4.279180e+001 3.784998e+001 3.135900e+001 2.400788e+001 1.426986e+000 2.354898e+000 3.416051e+000 3.678287e+000 4.466462e+000 4.370870e+000 5.306242e+000 5.164691e+000 5.752996e+000 4.261898e+000 4.434880e+000 3.336251e+000 2.083773e+000 1.599706e-001 3.903894e-001 3.161720e-001 6.192853e-001 7.327116e-001 5.797978e-001 8.357001e-001 9.278438e-001 7.476154e-001 5.966369e-001 5.610014e-001 4.275174e-001 3.909997e-001
<GCONST> 1.274948e+002
<MIXTURE> 7 1.147733e-001
<MEAN> 39
 -2.009905e+001 -6.410339e+000 8.672578e-001 -1.086839e+001 -5.159876e+000 -1.604555e+000 -5.021222e+000 -2.566301e+000 -2.822731e+000 -3.155956e+000 -2.146712e+000 -1.956551e+000 5.690577e+001 -6.343926e-001 -5.071179e-001 6.829497e-001 -1.044288e+000 -1.500586e+000 -8.122094e-001 -6.756381e-002 -1.708648e-001 -7.656175e-003 3.459041e-001 3.620270e-001 4.914969e-001 2.981815e+000 1.657050e+000 2.895284e-001 1.226130e-001 5.929917e-001 -1.028125e+000 -1.130097e+000 -3.783820e-001 -1.902108e-001 -6.476503e-001 -8.977731e-002 -2.327791e-001 -2.543197e-003 -4.979141e-001
<VARIANCE> 39
 4.105981e+001 3.411238e+001 4.161000e+001 5.026575e+001 3.747692e+001 4.490876e+001 4.484118e+001 3.290821e+001 3.091741e+001 2.477967e+001 2.179310e+001 1.802704e+001 1.996141e+001 7.405427e+000 3.553094e+000 3.367850e+000 3.980811e+000 4.782649e+000 5.377925e+000 4.884844e+000 3.915915e+000 3.636444e+000 3.275995e+000 2.702901e+000 2.204827e+000 3.777569e+000 6.738768e-001 9.390602e-001 1.114204e+000 1.411125e+000 1.329010e+000 1.452780e+000 1.315929e+000 1.223629e+000 1.012066e+000 9.582991e-001 8.829296e-001 6.833839e-001 8.837976e-001
<GCONST> 1.350272e+002
<MIXTURE> 8 9.984683e-002
<MEAN> 39
 -7.342527e+000 -4.237417e+000 -7.168178e-001 -8.385056e+000 -1.269781e+001 -9.785421e+000 -5.614796e+000 -4.809833e+000 -7.742541e+000 -2.522233e+000 -4.336451e+000 -1.424321e+000 5.346356e+001 3.846217e-002 6.954052e-002 -1.671389e-001 -4.952419e-001 -4.098537e-001 2.212026e-001 3.787041e-001 3.162608e-002 4.595971e-002 3.349926e-001 3.746073e-002 1.581891e-001 4.918699e-002 -4.922695e-002 -1.858369e-001 -1.566134e-001 -9.735700e-002 2.012096e-001 3.110948e-001 -4.844322e-002 2.178056e-001 2.964353e-001 -8.728726e-003 -3.296873e-002 -6.970335e-002 5.635642e-003
<VARIANCE> 39
 1.933070e+001 2.539003e+001 4.721988e+001 6.423495e+001 6.394480e+001 6.633053e+001 6.438762e+001 7.731907e+001 6.473020e+001 5.710829e+001 6.189079e+001 4.541133e+001 3.520322e+001 1.910791e+000 2.619839e+000 3.154240e+000 4.646297e+000 5.589948e+000 4.548482e+000 5.229561e+000 5.171017e+000 5.364861e+000 4.868676e+000 4.537975e+000 3.512134e+000 4.193003e+000 4.501210e-001 4.903467e-001 5.738459e-001 7.856932e-001 1.217479e+000 1.016667e+000 1.151109e+000 1.070096e+000 9.380501e-001 9.074855e-001 9.593650e-001 7.044796e-001 7.181292e-001
<GCONST> 1.379974e+002
<TRANSP> 5
 0.000000e+000 1.000000e+000 0.000000e+000 0.000000e+000 0.000000e+000
 0.000000e+000 5.661504e-001 4.338496e-001 0.000000e+000 0.000000e+000
 0.000000e+000 0.000000e+000 4.085014e-001 5.914986e-001 0.000000e+000
 0.000000e+000 0.000000e+000 0.000000e+000 3.462968e-001 6.537032e-001
 0.000000e+000 0.000000e+000 0.000000e+000 0.000000e+000 0.000000e+000
<ENDHMM>
~h "f"
<BEGINHMM>
<NUMSTATES> 5
<STATE> 2
<NUMMIXES> 8
<MIXTURE> 1 1.019450e-001
<MEAN> 39
 -4.282030e+000 -5.081314e+000 -1.100694e+001 -1.220972e+001 -4.911633e+000 -1.762802e+000 -2.939016e+000 -4.948626e+000 -4.325717e+000 -2.283058e+000 -4.571603e+000 -3.746612e+000 5.646446e+001 -4.749695e+000 1.912746e+000 1.711697e+000 3.519969e+000 1.397038e+000 1.489255e-001 9.714987e-001 8.349703e-001 4.490696e-001 -2.555489e-001 4.974256e-001 8.276151e-001 -2.156438e+000 -1.196762e+000 -8.208221e-001 4.234388e-002 -3.207868e-002 -1.024674e-001 -1.517150e-001 -1.343373e-001 5.174282e-001 3.620329e-001 2.754586e-001 2.416251e-001 2.108565e-001 2.194947e-001
<VARIANCE> 39
 1.406010e+001 1.696206e+001 2.521765e+001 3.560755e+001 2.918455e+001 5.836675e+001 4.744473e+001 3.167357e+001 3.167300e+001 4.344094e+001 4.207494e+001 2.403448e+001 2.134598e+001 2.886441e+000 3.437678e+000 3.537264e+000 5.105043e+000 4.653925e+000 7.463500e+000 5.837945e+000 5.409251e+000 4.308707e+000 5.171931e+000 5.205880e+000 3.239632e+000 2.028391e+000 2.899058e-001 2.980370e-001 3.587939e-001 4.917724e-001 4.558654e-001 4.924407e-001 6.120383e-001 5.654436e-001 4.375016e-001 6.557087e-001 5.401546e-001 4.362952e-001 1.774061e-001
<GCONST> 1.235769e+002
<MIXTURE> 2 1.016798e-001
<MEAN> 39
 -2.057647e+001 -2.237165e+000 -4.850784e+000 -3.142964e+000 -1.878294e+000 -5.681569e-001 -4.496254e-001 8.482673e-001 -3.458597e-001 1.194854e+000 5.720162e-002 8.108235e-001 4.539353e+001 -1.511167e+000 -4.833596e-001 -3.575118e-001 -1.470758e-001 -3.393411e-001 2.531198e-002 -7.787859e-003 1.046903e-001 4.658155e-001 1.854790e-001 3.985720e-001 3.715110e-001 -2.045284e-001 5.821347e-001 -4.330478e-001 -2.505877e-001 -3.785226e-001 -3.212403e-001 -4.449809e-001 -2.123372e-001 -2.359204e-001 -2.107770e-001 -2.374316e-001 -2.521109e-001 -2.173408e-001 8.794246e-001
<VARIANCE> 39
 1.632030e+001 1.155341e+001 1.682389e+001 1.482835e+001 1.710794e+001 1.688028e+001 1.833679e+001 1.742822e+001 1.627640e+001 1.685755e+001 1.385022e+001 1.303010e+001 7.722279e+001 3.432995e+000 2.624690e+000 1.833901e+000 2.190473e+000 2.041683e+000 2.351909e+000 2.096455e+000 2.258636e+000 2.315427e+000 2.077826e+000 1.917086e+000 1.753754e+000 5.975540e+000 6.284295e-001 4.288034e-001 3.846884e-001 4.484582e-001 5.224605e-001 5.170758e-001 5.339800e-001 4.944930e-001 4.469341e-001 4.581293e-001 4.324677e-001 3.627393e-001 9.956131e-001
<GCONST> 1.111579e+002
<MIXTURE> 3 1.195811e-001
<MEAN> 39
 -2.270634e+001 -8.028731e+000 -7.133723e+000 -5.352270e+000 -5.029562e+000 -4.506980e+000 -1.658090e+000 6.113566e-001 -8.718891e-001 -7.435029e-001 -1.745076e+000 1.148544e-001 5.291259e+001 -3.003769e+000 -1.371427e+000 -1.736823e+000 -6.035588e-001 3.170880e-001 9.637589e-001 8.484591e-001 1.485470e+000 1.869487e+000 1.245959e+000 1.019578e+000 7.615291e-001 8.968651e-003 1.179434e+000 1.970534e-001 3.283630e-001 -2.292808e-001 -5.396975e-001 -4.525324e-001 -5.038167e-001 -5.169735e-001 -7.185508e-001 -1.891205e-001 -2.644001e-001 -2.303489e-001 1.059018e-001
<VARIANCE> 39
 1.250643e+001 1.167689e+001 1.743089e+001 1.485055e+001 1.510900e+001 1.520050e+001 1.797985e+001 1.629535e+001 1.740856e+001 1.593791e+001 1.413442e+001 1.241203e+001 2.523040e+001 1.887811e+000 1.672177e+000 2.629802e+000 1.983016e+000 2.338530e+000 2.304177e+000 2.332272e+000 2.825586e+000 2.123187e+000 2.554536e+000 2.898391e+000 2.099256e+000 1.733959e+000 2.562867e-001 3.334401e-001 5.435661e-001 5.262731e-001 5.392874e-001 4.688094e-001 5.149903e-001 5.778296e-001 5.326884e-001 5.713696e-001 6.472327e-001 4.395653e-001 3.244533e-001
<GCONST> 1.079023e+002
<MIXTURE> 4 1.246472e-001
<MEAN> 39
 -1.593332e+001 -2.646331e+000 -2.771402e+000 -3.337513e+000 -4.154561e+000 -5.785478e+000 -4.341536e+000 -4.414612e+000 -6.576732e+000 -5.580425e+000 -5.638200e+000 -2.648080e+000 5.227387e+001 -4.802617e+000 -4.532921e-001 -9.583589e-001 9.166923e-001 1.473399e+000 1.879090e+000 1.348279e+000 1.424781e+000 2.058691e+000 8.196019e-001 1.355250e+000 8.384825e-001 -9.168788e-001 2.711531e-001 -8.087807e-001 -4.311650e-001 -8.492035e-001 -6.368130e-001 -2.406760e-001 -5.828897e-002 3.900832e-001 1.749852e-001 5.788019e-001 1.886487e-001 2.027555e-001 4.514132e-001
<VARIANCE> 39
 1.823281e+001 1.356246e+001 1.952095e+001 1.556449e+001 2.091015e+001 2.136925e+001 2.133684e+001 2.149382e+001 1.980128e+001 1.784167e+001 1.683891e+001 1.461646e+001 3.114573e+001 1.982499e+000 2.704018e+000 5.896630e+000 4.742517e+000 4.436960e+000 4.093525e+000 3.411163e+000 4.579662e+000 4.184257e+000 4.385088e+000 4.179387e+000 2.946336e+000 2.638775e+000 4.466425e-001 4.139757e-001 4.869625e-001 5.256115e-001 6.249102e-001 6.544567e-001 6.402771e-001 7.615873e-001 6.272356e-001 5.870219e-001 4.856192e-001 4.507625e-001 3.447333e-001
<GCONST> 1.187488e+002
<MIXTURE> 5 1.566552e-001
<MEAN> 39
 -2.340593e+001 -8.863771e+000 -8.723247e+000 -5.480844e+000 -3.623901e+000 -3.548099e+000 -2.706215e+000 -6.057360e-001 -1.581416e+000 -1.195135e+000 -2.430822e+000 -6.888611e-001 5.364314e+001 -2.801508e+000 -1.310225e+000 -9.843059e-001 -4.419183e-001 -6.648303e-001 -2.176766e-001 -6.582125e-002 7.415441e-002 6.506664e-002 1.626129e-001 2.274592e-001 3.848388e-001 -1.579123e-001 1.571965e+000 1.230874e-001 -9.274937e-002 -5.205866e-001 -3.426963e-001 -1.592577e-001 -3.803205e-001 -1.603517e-001 -4.208928e-002 1.114423e-001 5.058679e-002 -8.885884e-002 2.533136e-001
<VARIANCE> 39
 7.893007e+000 9.025598e+000 9.492311e+000 1.005505e+001 1.195892e+001 1.269824e+001 1.390069e+001 1.480359e+001 1.432582e+001 1.535815e+001 1.350701e+001 1.268046e+001 1.606718e+001 1.653887e+000 8.016644e-001 1.293698e+000 1.516845e+000 1.319188e+000 1.712874e+000 1.974090e+000 1.729451e+000 1.715905e+000 1.673898e+000 1.582815e+000 1.382644e+000 8.376092e-001 1.658272e-001 2.812086e-001 4.437103e-001 5.158723e-001 4.261339e-001 5.863464e-001 6.524428e-001 5.443124e-001 5.126099e-001 4.588216e-001 4.500524e-001 4.383356e-001 1.980640e-001
<GCONST> 9.717400e+001
<MIXTURE> 6 1.561967e-001
<MEAN> 39
 -1.816887e+001 -4.960410e+000 -6.182808e+000 -4.079080e+000 -1.222623e+000 -1.314275e+000 -1.082477e+000 1.082051e-001 -8.697872e-001 -7.804114e-001 -2.467927e+000 -1.343219e+000 5.359805e+001 -5.522629e+000 -6.419379e-001 2.631732e-001 1.388491e+000 3.014774e-001 -2.210885e-001 5.681148e-001 5.978116e-001 1.113744e-001 4.402968e-003 1.887434e-001 6.662456e-001 -1.029893e+000 8.801304e-001 -7.208461e-001 -5.196685e-001 -9.546643e-001 -7.006397e-001 -2.408539e-001 -6.400988e-001 -1.877190e-001 -1.397212e-002 1.381859e-002 7.854781e-002 -1.231387e-001 4.754505e-001
<VARIANCE> 39
 1.854423e+001 1.114435e+001 1.081507e+001 1.165544e+001 1.245422e+001 1.451678e+001 1.444309e+001 1.374653e+001 1.417539e+001 1.230948e+001 1.234119e+001 1.223906e+001 1.775246e+001 1.555025e+000 2.452568e+000 3.105025e+000 4.723337e+000 3.066810e+000 4.600049e+000 4.938729e+000 3.593264e+000 3.333401e+000 3.216752e+000 3.122257e+000 2.909781e+000 1.739778e+000 4.228310e-001 3.983525e-001 4.863471e-001 6.073424e-001 5.362443e-001 6.421475e-001 6.905395e-001 5.857198e-001 5.406530e-001 5.088348e-001 4.941347e-001 4.117691e-001 2.508139e-001
<GCONST> 1.108313e+002
<MIXTURE> 7 1.410187e-001
<MEAN> 39
 -2.237441e+001 -8.892083e+000 -8.684373e+000 -8.287449e+000 -5.934526e+000 -4.612856e+000 -2.772625e+000 4.623425e-001 -6.501736e-001 -5.253841e-001 -1.827350e+000 -1.960339e-001 5.424632e+001 -8.147277e-001 -3.432613e-001 -7.459528e-001 3.036645e-001 -5.940258e-001 -2.893746e-001 -3.679496e-001 -3.709349e-001 -2.444240e-002 6.677859e-002 -1.388281e-001 -3.860769e-002 -5.025610e-001 2.820535e-001 4.680682e-001 3.105516e-001 2.814941e-001 2.924996e-001 6.257347e-002 -6.837015e-002 -1.164267e-001 -1.869213e-001 -1.040437e-002 6.345639e-003 -5.641516e-002 -2.983117e-001
<VARIANCE> 39
 1.441002e+001 1.248735e+001 1.506248e+001 1.451454e+001 1.595965e+001 1.705408e+001 1.792239e+001 1.570410e+001 1.550642e+001 1.471145e+001 1.416949e+001 1.266870e+001 2.965921e+001 2.877681e+000 2.135230e+000 2.342053e+000 2.592304e+000 2.511530e+000 2.415579e+000 2.285381e+000 2.150445e+000 2.209710e+000 1.876196e+000 1.926291e+000 1.611405e+000 3.563261e+000 4.877799e-001 2.645366e-001 3.835101e-001 4.184212e-001 4.229626e-001 4.792343e-001 4.675016e-001 4.705286e-001 4.292151e-001 3.812971e-001 3.729333e-001 3.261875e-001 3.932344e-001
<GCONST> 1.065156e+002
<MIXTURE> 8 9.826172e-002
<MEAN> 39
 -8.467939e+000 -4.138986e+000 -4.966863e+000 -4.239688e+000 -4.650403e+000 -7.293925e+000 -4.645677e+000 3.886651e-001 -9.937172e-001 -4.129471e-001 -1.827140e+000 -8.452279e-001 5.523766e+001 -5.399498e+000 1.126190e+000 -4.169036e-001 9.573655e-001 1.922715e+000 1.646879e+000 2.424469e+000 -2.575020e-001 4.516330e-001 2.333526e-001 -3.256943e-001 6.024131e-001 -1.722555e+000 -6.253483e-001 -8.917778e-001 -1.927918e-001 -5.237593e-001 -5.906861e-001 4.564947e-002 -3.978293e-001 6.346269e-002 -7.334929e-002 -1.628885e-001 6.343491e-002 -1.133047e-001 3.177808e-001
<VARIANCE> 39
 1.573305e+001 1.255818e+001 3.411324e+001 1.569904e+001 2.154546e+001 3.633846e+001 3.186857e+001 2.518219e+001 2.812243e+001 1.997692e+001 1.740852e+001 1.905611e+001 1.654784e+001 2.148027e+000 2.896435e+000 8.013164e+000 3.362452e+000 4.824674e+000 4.432434e+000 6.342615e+000 4.973336e+000 6.893441e+000 4.697176e+000 4.367987e+000 3.550964e+000 2.066799e+000 2.801847e-001 3.181121e-001 4.179466e-001 3.448885e-001 3.688000e-001 4.965958e-001 5.724424e-001 5.580038e-001 4.823583e-001 4.105036e-001 3.532358e-001 3.993581e-001 1.856934e-001
<GCONST> 1.176652e+002
<STATE> 3
<NUMMIXES> 8
<MIXTURE> 1 6.608254e-002
<MEAN> 39
 -2.080972e+001 -2.459477e+000 4.813704e-002 2.278312e-001 2.888706e+000 1.700119e+000 4.730194e+000 3.864937e+000 5.584841e+000 3.305870e+000 3.723756e+000 3.059883e+000 5.222228e+001 3.299447e-001 -1.702413e-001 -1.544823e-001 -6.623463e-002 -5.453626e-003 -2.005694e-001 -1.029679e-001 -1.207924e-001 6.720638e-002 -1.769357e-001 -1.327778e-001 -1.700650e-001 3.781811e-001 6.713485e-001 -4.371628e-002 -3.058953e-001 -2.455482e-001 -2.481185e-001 -1.085237e-001 -3.626810e-001 -1.100462e-001 -4.187164e-001 -2.336259e-001 -2.648434e-001 -2.262288e-001 5.975711e-002
<VARIANCE> 39
 9.897964e+000 1.469756e+001 1.059373e+001 9.961355e+000 1.164152e+001 1.499236e+001 1.346245e+001 1.601892e+001 1.684665e+001 1.878469e+001 1.405507e+001 1.523834e+001 6.620055e+001 2.438107e+000 1.491571e+000 1.242747e+000 1.249082e+000 1.300725e+000 1.498779e+000 1.395319e+000 1.707625e+000 1.773034e+000 1.625065e+000 1.503102e+000 1.545449e+000 1.599090e+000 3.930159e-001 3.454030e-001 3.413540e-001 3.941682e-001 3.572913e-001 3.970818e-001 3.698117e-001 3.704351e-001 4.297385e-001 3.638204e-001 3.394795e-001 3.205488e-001 2.455086e-001
<GCONST> 9.938420e+001
<MIXTURE> 2 1.583673e-001
<MEAN> 39
 -2.377114e+001 -5.966150e+000 -7.692047e+000 -4.934849e+000 -3.946637e+000 -2.696320e+000 -3.170130e+000 -2.154592e+000 -3.604376e+000 -1.608490e+000 -1.580058e+000 4.871598e-001 5.082663e+001 -3.346739e-002 -7.881453e-002 -5.282112e-002 1.314934e-001 5.684067e-002 1.336510e-001 8.199026e-002 7.333285e-002 1.050588e-001 7.501677e-002 2.013769e-004 -2.858425e-002 1.129693e-001 5.573587e-001 -1.551516e-001 -8.768392e-002 -2.357261e-001 -9.547377e-002 -1.686697e-001 6.642832e-002 2.850021e-001 3.470080e-001 1.788112e-001 -4.078694e-002 -1.342113e-001 3.147074e-001
<VARIANCE> 39
 1.187329e+001 1.292803e+001 9.556977e+000 1.012342e+001 1.139188e+001 9.766349e+000 1.161717e+001 1.080813e+001 1.017968e+001 1.050915e+001 9.776479e+000 1.022946e+001 3.068277e+001 7.308947e-001 8.369967e-001 8.539698e-001 1.041820e+000 1.156856e+000 1.184023e+000 1.320705e+000 1.508337e+000 1.547033e+000 1.471857e+000 1.441983e+000 1.301893e+000 1.484558e+000 2.946200e-001 1.853419e-001 1.858731e-001 2.225958e-001 2.438666e-001 2.552445e-001 2.511890e-001 2.543731e-001 2.414714e-001 2.354222e-001 2.427641e-001 2.532438e-001 3.289148e-001
<GCONST> 8.738427e+001
<MIXTURE> 3 1.560536e-001
<MEAN> 39
 -2.384388e+001 -8.976080e+000 -1.050406e+001 -7.961198e+000 -7.302210e+000 -6.624093e+000 -5.083083e+000 -8.891888e-001 -2.917072e-001 1.497380e+000 1.424592e-001 1.254112e+000 5.304110e+001 -1.288693e-002 -2.063559e-001 -1.572112e-001 -6.510107e-003 1.897072e-002 4.351138e-002 5.493025e-002 4.003876e-002 1.232936e-001 1.688534e-001 6.243326e-002 -3.989305e-002 1.466126e-001 6.910405e-001 2.076437e-001 3.127360e-001 1.992292e-001 4.190258e-001 3.923557e-001 2.535686e-001 -8.008053e-003 -2.054752e-001 -3.274319e-001 -3.646979e-001 -3.195428e-001 2.489412e-002
<VARIANCE> 39
 7.947855e+000 1.141569e+001 9.114890e+000 9.722477e+000 9.484457e+000 9.797087e+000 1.226587e+001 1.360612e+001 1.359566e+001 1.141070e+001 1.030581e+001 1.052173e+001 2.020009e+001 9.969153e-001 7.366659e-001 9.488949e-001 1.151412e+000 1.246729e+000 1.401818e+000 1.434482e+000 1.510325e+000 1.409513e+000 1.499990e+000 1.519452e+000 1.287321e+000 1.355620e+000 3.844483e-001 1.929028e-001 2.227120e-001 2.520365e-001 2.115497e-001 2.392720e-001 2.883444e-001 3.364656e-001 3.246651e-001 2.740334e-001 2.451391e-001 2.417216e-001 2.430378e-001
<GCONST> 8.843199e+001
<MIXTURE> 4 1.329988e-001
<MEAN> 39
 -2.532030e+001 -7.865008e+000 -7.929328e+000 -4.890841e+000 -3.656493e+000 -1.697610e+000 8.328405e-002 2.671639e+000 1.209027e+000 1.205572e+000 -9.433596e-001 1.456602e-001 5.199660e+001 -4.578742e-002 -1.224845e-001 -9.703005e-002 4.312572e-003 1.262806e-001 2.226590e-001 2.656388e-001 2.106879e-001 1.467337e-001 1.723627e-001 9.188787e-002 6.468911e-002 5.863822e-002 8.925688e-001 1.233549e-001 5.991546e-002 -2.354757e-001 -2.101066e-001 -4.378446e-001 -5.126886e-001 -5.518242e-001 -4.810417e-001 -3.511712e-001 -2.283824e-001 -1.400248e-001 2.164652e-001
<VARIANCE> 39
 9.327148e+000 1.087908e+001 9.955202e+000 1.085319e+001 1.228542e+001 1.137999e+001 1.121982e+001 1.035284e+001 1.076740e+001 1.308137e+001 1.109076e+001 1.171642e+001 2.621887e+001 1.111737e+000 8.167732e-001 9.802665e-001 1.134601e+000 1.281009e+000 1.328578e+000 1.390634e+000 1.445623e+000 1.454239e+000 1.524917e+000 1.392947e+000 1.288900e+000 1.468814e+000 4.342255e-001 2.138250e-001 2.456105e-001 2.539601e-001 2.958919e-001 2.668330e-001 2.928546e-001 2.714586e-001 2.820004e-001 3.247130e-001 3.053140e-001 3.165780e-001 2.929358e-001
<GCONST> 9.058473e+001
<MIXTURE> 5 1.270638e-001
<MEAN> 39
 -2.390103e+001 -9.799913e+000 -9.937752e+000 -6.454073e+000 -4.884277e+000 -4.482182e+000 -3.133439e+000 -2.248571e-001 -1.213993e+000 -2.346698e+000 -5.757074e+000 -2.680552e+000 5.409356e+001 6.768399e-002 -1.209728e-001 -1.948583e-001 -1.638450e-002 1.383515e-001 9.705824e-002 2.166578e-002 1.224312e-001 2.346146e-001 2.904707e-001 1.547354e-001 2.443259e-002 2.859576e-002 6.619920e-001 2.444522e-001 2.270405e-001 -3.929253e-002 6.141924e-002 -3.518596e-003 -4.551497e-002 -3.976433e-002 1.524341e-002 2.817712e-001 5.511890e-001 2.886649e-001 -4.607121e-002
<VARIANCE> 39
 8.229954e+000 8.519486e+000 8.060652e+000 1.022608e+001 1.171783e+001 1.250018e+001 1.275597e+001 1.209739e+001 1.130146e+001 1.108603e+001 7.276838e+000 9.332972e+000 1.541649e+001 8.151833e-001 6.443968e-001 8.552552e-001 1.064824e+000 1.133109e+000 1.225722e+000 1.432854e+000 1.436463e+000 1.353104e+000 1.418178e+000 1.381839e+000 1.161788e+000 7.778062e-001 3.162358e-001 1.442884e-001 1.821776e-001 2.372627e-001 2.413587e-001 2.938952e-001 2.953505e-001 2.749814e-001 2.751762e-001 2.498360e-001 1.658028e-001 2.045171e-001 1.380617e-001
<GCONST> 8.390968e+001
<MIXTURE> 6 1.593589e-001
<MEAN> 39
 -2.480145e+001 -1.018818e+001 -1.067805e+001 -6.711894e+000 -4.121756e+000 -3.100619e+000 -2.742646e+000 -1.716496e-001 -2.898966e-001 1.304495e+000 -5.884926e-001 8.566134e-002 5.391022e+001 1.036922e-001 -5.432613e-002 -1.782081e-001 -1.182667e-001 -9.588705e-002 -1.217130e-001 -2.364486e-001 -2.298650e-001 -1.470340e-001 -1.204967e-002 2.079944e-002 -1.003666e-002 3.266976e-002 5.363824e-001 2.091189e-001 2.266408e-001 1.132007e-003 -2.051808e-002 -1.314234e-001 -7.898650e-002 -1.020938e-001 -1.505344e-001 -2.703581e-001 -2.147385e-001 -1.017222e-001 1.118713e-002
<VARIANCE> 39
 8.239566e+000 7.787582e+000 7.868849e+000 9.574122e+000 8.420963e+000 8.700763e+000 1.162323e+001 1.006763e+001 9.628081e+000 9.428591e+000 8.311460e+000 8.654878e+000 1.546086e+001 4.852982e-001 4.813954e-001 6.509659e-001 8.659893e-001 1.087783e+000 1.284164e+000 1.303012e+000 1.348973e+000 1.395802e+000 1.425189e+000 1.300077e+000 1.236492e+000 4.966956e-001 2.201412e-001 1.326947e-001 1.474055e-001 1.841970e-001 1.699246e-001 1.935287e-001 2.275143e-001 2.325755e-001 2.319112e-001 2.021263e-001 1.855879e-001 2.049811e-001 9.421963e-002
<GCONST> 7.788858e+001
<MIXTURE> 7 1.067056e-001
<MEAN> 39
 -2.477523e+001 -6.778050e+000 -8.444882e+000 -5.600782e+000 -4.401391e+000 -2.530130e+000 -1.780474e+000 3.186256e-001 -8.997698e-001 1.972982e-001 -4.537541e-001 9.287452e-001 4.922686e+001 2.949510e-001 -8.594683e-001 -5.406887e-001 -7.592980e-001 -6.756766e-001 -8.130645e-001 -4.240158e-001 -2.589562e-001 -4.507750e-002 -9.038177e-002 -4.302249e-002 6.599304e-002 1.472003e+000 1.469350e+000 3.485027e-002 1.092873e-001 -2.914267e-001 -1.927455e-001 -3.075537e-001 -3.081036e-001 -2.135114e-001 -2.252055e-001 -1.388443e-001 -2.864725e-001 -3.334086e-001 4.943760e-001
<VARIANCE> 39
 1.285881e+001 1.333309e+001 1.132276e+001 1.231848e+001 1.150046e+001 1.197529e+001 1.215775e+001 1.010926e+001 1.166375e+001 1.126077e+001 1.119830e+001 9.627767e+000 3.000367e+001 2.957843e+000 1.417793e+000 1.507238e+000 1.544563e+000 1.564443e+000 1.504628e+000 1.734840e+000 1.846325e+000 1.820424e+000 1.700706e+000 1.463681e+000 1.506196e+000 4.259536e+000 5.333226e-001 3.776973e-001 4.878932e-001 4.643847e-001 3.995002e-001 5.597246e-001 4.425237e-001 4.122197e-001 4.326707e-001 3.740046e-001 4.072849e-001 2.964502e-001 5.939813e-001
<GCONST> 1.013816e+002
<MIXTURE> 8 9.334264e-002
<MEAN> 39
 -2.224897e+001 -7.190508e+000 -9.434589e+000 -7.484985e+000 -7.001614e+000 -6.435839e+000 -4.896807e+000 -2.356966e+000 -3.668541e+000 -2.790816e+000 -4.084881e+000 -1.271068e+000 5.363184e+001 -1.194377e-002 -5.129485e-003 -1.478147e-001 -9.691098e-002 -2.314595e-001 -2.425036e-001 -4.269252e-001 -4.964386e-001 -4.312967e-001 -2.731903e-001 -1.823559e-001 -1.281923e-001 -2.754792e-002 3.300819e-001 -6.208878e-002 1.374896e-001 9.691758e-002 3.272727e-001 3.152574e-001 2.514523e-001 2.473568e-001 3.261083e-001 3.129760e-001 2.671362e-001 1.000464e-001 2.010213e-002
<VARIANCE> 39
 9.824539e+000 1.264644e+001 1.091050e+001 1.087881e+001 1.045863e+001 1.050600e+001 1.464769e+001 1.481659e+001 1.394100e+001 1.200603e+001 8.585202e+000 1.099137e+001 2.037632e+001 7.443839e-001 6.644367e-001 8.388681e-001 1.136934e+000 1.040352e+000 1.249597e+000 1.453200e+000 1.516133e+000 1.429234e+000 1.323442e+000 1.441965e+000 1.283796e+000 7.700632e-001 2.131257e-001 1.343100e-001 1.884485e-001 2.031638e-001 2.045811e-001 2.249502e-001 2.895594e-001 3.422587e-001 2.739008e-001 2.495380e-001 1.899950e-001 2.507916e-001 1.475344e-001
<GCONST> 8.548289e+001
<STATE> 4
<NUMMIXES> 8
<MIXTURE> 1 8.804496e-002
<MEAN> 39
 -1.997544e+001 -5.361070e+000 -5.682271e+000 -5.449375e+000 -2.848649e+000 -2.730224e+000 -2.585127e+000 -7.826733e-001 -1.354745e+000 -6.074597e-001 -1.203618e+000 -2.390961e-001 5.035885e+001 8.832987e-001 5.609457e-001 5.329615e-001 6.874679e-001 6.267170e-001 6.455246e-001 6.218382e-002 1.259290e-001 1.687675e-001 3.605651e-001 3.306936e-001 9.483328e-002 -2.584976e+000 2.795050e-001 -5.636636e-002 -1.716542e-001 -5.564363e-002 -6.053635e-002 6.593464e-002 9.587784e-002 6.359062e-002 8.091664e-003 4.465282e-002 -5.780996e-002 -4.227995e-002 -1.078442e-001
<VARIANCE> 39
 2.276994e+001 2.042285e+001 2.553374e+001 2.667681e+001 2.245935e+001 2.308719e+001 1.993256e+001 2.125145e+001 1.935444e+001 1.862711e+001 1.814826e+001 1.353386e+001 8.040631e+001 2.337757e+000 2.262416e+000 1.958650e+000 3.019173e+000 2.338124e+000 2.386694e+000 2.192227e+000 2.101592e+000 2.027572e+000 1.860557e+000 1.781859e+000 1.473475e+000 1.016892e+001 5.935538e-001 4.674857e-001 4.717509e-001 7.137337e-001 5.248389e-001 6.261112e-001 5.029863e-001 5.245621e-001 4.795519e-001 4.375285e-001 4.441502e-001 3.032721e-001 1.808390e+000
<GCONST> 1.159337e+002
<MIXTURE> 2 1.271670e-001
<MEAN> 39
 -1.477323e+001 -7.099422e+000 -8.866701e+000 -6.245856e+000 -1.762116e+000 -1.369359e+000 -2.244828e+000 -8.629783e-001 -6.224270e-001 6.019778e-001 -1.337188e+000 -1.273015e+000 5.113321e+001 6.455499e+000 9.237450e-001 -7.881786e-001 -2.547422e+000 -1.776558e+000 6.738503e-001 -1.228517e+000 -9.016908e-001 -8.198440e-001 -8.462489e-001 1.674104e-001 -3.613070e-001 8.393977e-001 4.767264e-001 -3.455571e-001 -3.304375e-001 -7.483809e-001 -7.943751e-001 3.344963e-002 -4.665201e-001 -8.479951e-002 -4.910286e-002 -1.985427e-001 1.753506e-001 3.462807e-002 6.942902e-001
<VARIANCE> 39
 1.645603e+001 1.354041e+001 1.491761e+001 2.128965e+001 1.327569e+001 2.045143e+001 1.913231e+001 1.813473e+001 1.935012e+001 1.626822e+001 1.514816e+001 1.376130e+001 2.122470e+001 1.526348e+000 3.232484e+000 4.166044e+000 6.037376e+000 5.370554e+000 4.480574e+000 6.606434e+000 4.404818e+000 5.308052e+000 3.432789e+000 3.820358e+000 3.043117e+000 1.684054e+000 2.761334e-001 3.831816e-001 3.743905e-001 5.593374e-001 5.174216e-001 6.058375e-001 6.615011e-001 6.263715e-001 6.521214e-001 5.100806e-001 4.377615e-001 4.335921e-001 2.939714e-001
<GCONST> 1.158565e+002
<MIXTURE> 3 1.613615e-001
<MEAN> 39
 -2.283307e+001 -9.622750e+000 -1.012524e+001 -6.044860e+000 -3.864127e+000 -4.084443e+000 -3.765940e+000 -7.932524e-001 -1.004536e+000 -3.151597e-001 -2.607606e+000 -1.475355e+000 5.459991e+001 2.794923e+000 4.999767e-001 3.517084e-001 -1.176228e-001 4.249569e-001 1.897511e-001 -1.542113e-002 -1.558600e-001 1.056130e-001 6.467450e-002 1.050822e-002 -3.198631e-001 5.543507e-002 1.733178e+000 1.574995e-001 -7.038407e-002 -6.284946e-001 -5.014349e-001 -2.714487e-002 -4.167753e-001 -1.285819e-001 -1.261540e-001 -9.469350e-002 1.810822e-001 8.379123e-003 2.124166e-001
<VARIANCE> 39
 9.969938e+000 1.044316e+001 7.991571e+000 1.202351e+001 1.219308e+001 1.359017e+001 1.312190e+001 1.260752e+001 1.349607e+001 1.325421e+001 1.240935e+001 1.101745e+001 1.405518e+001 1.891852e+000 1.076203e+000 1.077356e+000 1.467028e+000 1.332576e+000 1.695523e+000 1.611813e+000 1.544560e+000 1.656246e+000 1.592064e+000 1.362704e+000 1.337583e+000 1.419782e+000 1.801757e-001 3.534979e-001 4.029365e-001 5.303689e-001 5.140280e-001 6.361670e-001 6.746035e-001 5.149809e-001 5.204553e-001 4.600726e-001 4.170164e-001 4.529359e-001 2.341820e-001
<GCONST> 9.765118e+001
<MIXTURE> 4 9.656442e-002
<MEAN> 39
 -2.192788e+000 -2.364740e+000 -1.113037e+001 -1.528557e+001 -9.673802e+000 -1.460990e+000 -2.822486e+000 -4.003512e+000 -4.842146e+000 -2.315432e+000 -1.264393e+000 -1.830555e+000 5.485780e+001 6.097160e+000 1.926962e-001 -8.416355e-001 -4.254643e+000 -2.907193e+000 8.903399e-001 -6.379399e-001 -6.965197e-001 -1.179576e+000 -7.604676e-001 5.511417e-001 -3.478987e-001 1.758192e+000 -1.182042e+000 -7.972254e-001 -1.186745e-001 1.648909e-001 1.797899e-001 4.665414e-003 -1.875282e-001 2.927658e-001 3.276906e-001 1.850541e-001 1.208468e-001 8.711387e-002 2.853915e-001
<VARIANCE> 39
 1.649413e+001 1.630532e+001 1.746696e+001 3.434073e+001 3.347287e+001 3.025587e+001 2.575563e+001 2.406974e+001 2.560686e+001 2.118852e+001 1.943660e+001 1.649551e+001 2.366653e+001 1.702162e+000 4.797892e+000 4.540237e+000 5.579222e+000 6.307960e+000 6.522682e+000 6.224793e+000 6.214915e+000 6.822803e+000 4.939375e+000 4.775670e+000 4.161609e+000 1.864020e+000 2.544833e-001 2.085007e-001 2.486663e-001 3.856491e-001 4.019788e-001 3.580970e-001 4.017901e-001 4.480383e-001 4.012570e-001 3.846797e-001 3.425584e-001 2.870471e-001 2.112101e-001
<GCONST> 1.174067e+002
<MIXTURE> 5 1.464964e-001
<MEAN> 39
 -2.209624e+001 -7.773982e+000 -7.010965e+000 -6.468653e+000 -5.081978e+000 -3.835421e+000 -4.880233e-001 1.234213e+000 -6.037554e-001 -9.964066e-001 -1.671230e+000 8.045469e-001 5.426748e+001 4.665403e+000 -5.014463e-002 8.434271e-001 -6.834334e-001 -1.246604e+000 -1.836756e+000 -1.372889e+000 -4.518847e-001 -7.757622e-001 -4.570158e-001 -7.918723e-001 -9.093852e-001 1.379758e+000 1.297380e+000 -4.635708e-001 7.148595e-002 -5.118924e-001 -6.241231e-001 -6.219882e-001 -8.336872e-001 -4.448388e-002 -3.766145e-001 2.984440e-002 -1.211289e-001 -3.265500e-001 4.492221e-001
<VARIANCE> 39
 1.066368e+001 1.107044e+001 1.329227e+001 1.434245e+001 1.719696e+001 1.572030e+001 1.753360e+001 1.632518e+001 1.838721e+001 1.519934e+001 1.536657e+001 1.270987e+001 2.141611e+001 2.572535e+000 2.004556e+000 4.392082e+000 2.644079e+000 2.521596e+000 3.099930e+000 2.847924e+000 2.911722e+000 3.056400e+000 2.290953e+000 2.575281e+000 1.861046e+000 2.583244e+000 3.062503e-001 3.507572e-001 7.473409e-001 4.852796e-001 5.513566e-001 7.280594e-001 6.442075e-001 7.332221e-001 7.629431e-001 5.898181e-001 6.219605e-001 4.461168e-001 3.325266e-001
<GCONST> 1.115636e+002
<MIXTURE> 6 1.338535e-001
<MEAN> 39
 -2.271669e+001 -1.047977e+001 -9.745911e+000 -9.052011e+000 -6.411020e+000 -4.428127e+000 -1.891522e+000 -3.840523e-002 -1.209324e+000 -2.541545e-001 -1.194060e+000 3.604404e-001 5.572441e+001 1.494388e+000 1.052940e-001 7.114084e-001 -3.567537e-001 -7.368564e-002 -4.773761e-002 1.092150e-001 -1.607370e-001 -1.662904e-001 -1.520367e-001 -1.223976e-001 -1.826936e-001 2.409469e-001 1.002097e+000 5.894346e-001 4.902389e-001 2.373578e-001 -9.968438e-004 -1.014421e-002 -3.463588e-001 -2.261744e-001 -2.282437e-001 -1.854990e-001 -1.669520e-001 -1.838167e-001 -5.712377e-001
<VARIANCE> 39
 1.296693e+001 1.016547e+001 2.311852e+001 1.542845e+001 1.879070e+001 1.760324e+001 1.853792e+001 1.765525e+001 1.611358e+001 1.533078e+001 1.186095e+001 1.063959e+001 1.469384e+001 1.912587e+000 1.646148e+000 2.119897e+000 2.021634e+000 1.952980e+000 2.140007e+000 2.044161e+000 2.268407e+000 2.038583e+000 1.864072e+000 1.724994e+000 1.294401e+000 3.915310e+000 3.703960e-001 2.754737e-001 4.303999e-001 3.787992e-001 4.803330e-001 4.722157e-001 5.468149e-001 5.261639e-001 4.918052e-001 4.085590e-001 3.929553e-001 3.056014e-001 4.401062e-001
<GCONST> 1.047615e+002
<MIXTURE> 7 1.258093e-001
<MEAN> 39
 -1.356741e+001 -4.733698e+000 -4.305816e+000 -4.777011e+000 -5.107060e+000 -6.824567e+000 -3.448165e+000 -7.243778e-001 -1.652174e+000 -2.201407e+000 -3.797042e+000 -1.745868e+000 5.560449e+001 5.884065e+000 -1.485496e+000 5.399648e-002 -1.688731e+000 -1.745490e+000 -2.304595e+000 -2.632271e+000 5.511418e-002 -8.914805e-001 -4.059078e-001 -4.363905e-001 -1.128849e+000 2.261690e+000 -4.714339e-002 -7.554299e-001 -2.675542e-001 -5.814412e-001 -3.356413e-001 -7.667607e-002 -3.294110e-001 3.396694e-001 -1.023911e-001 1.286663e-001 1.994769e-001 2.685567e-002 3.569568e-001
<VARIANCE> 39
 2.470847e+001 1.370065e+001 2.246179e+001 1.716714e+001 2.290945e+001 2.227607e+001 2.281385e+001 1.940796e+001 2.009154e+001 1.683046e+001 1.492947e+001 1.370707e+001 3.370034e+001 2.133837e+000 3.219486e+000 8.437016e+000 4.408759e+000 5.301869e+000 6.007347e+000 5.318183e+000 5.191621e+000 6.078944e+000 4.333466e+000 4.916267e+000 3.427997e+000 2.629860e+000 4.462508e-001 3.067398e-001 4.050609e-001 3.875029e-001 4.686811e-001 5.519416e-001 5.992440e-001 5.836708e-001 5.338622e-001 5.073597e-001 4.354189e-001 3.956358e-001 3.544002e-001
<GCONST> 1.194870e+002
<MIXTURE> 8 1.206840e-001
<MEAN> 39
 -2.021778e+001 -1.118755e+001 -1.082181e+001 -6.604924e+000 -4.438415e+000 -4.476141e+000 -4.551021e+000 -1.802001e+000 -4.431598e-001 1.392518e+000 -5.719328e-001 -6.385270e-001 5.475943e+001 5.357913e+000 1.176426e+000 -5.870314e-001 -1.384191e+000 -1.693938e-001 -8.954654e-002 -9.849860e-001 -9.074144e-001 -6.695960e-001 -6.551640e-001 -2.401998e-001 -2.773331e-001 9.006744e-002 1.471867e+000 3.253545e-001 -3.927037e-001 -7.719829e-001 -3.551959e-001 7.434071e-002 -5.181828e-001 1.591073e-002 -2.217811e-001 -3.470939e-001 -6.264437e-002 4.976226e-003 1.700983e-001
<VARIANCE> 39
 9.474517e+000 9.943327e+000 9.936182e+000 1.211134e+001 1.299588e+001 1.472454e+001 1.408342e+001 1.624097e+001 1.767677e+001 1.490793e+001 1.447196e+001 1.099860e+001 1.539996e+001 2.467145e+000 1.584743e+000 2.096977e+000 3.466583e+000 2.950989e+000 2.435851e+000 3.875904e+000 2.303633e+000 2.647148e+000 1.932006e+000 1.969120e+000 1.607301e+000 1.822017e+000 1.930209e-001 3.895721e-001 5.030826e-001 7.135974e-001 8.166244e-001 7.392511e-001 9.394620e-001 7.695315e-001 8.133852e-001 6.205890e-001 5.634481e-001 4.181968e-001 2.883119e-001
<GCONST> 1.081572e+002
<TRANSP> 5
 0.000000e+000 1.000000e+000 0.000000e+000 0.000000e+000 0.000000e+000
 0.000000e+000 6.613983e-001 3.386017e-001 0.000000e+000 0.000000e+000
 0.000000e+000 0.000000e+000 7.764282e-001 2.235718e-001 0.000000e+000
 0.000000e+000 0.000000e+000 0.000000e+000 6.608302e-001 3.391698e-001
 0.000000e+000 0.000000e+000 0.000000e+000 0.000000e+000 0.000000e+000
<ENDHMM>
~h "g"
<BEGINHMM>
<NUMSTATES> 5
<STATE> 2
<NUMMIXES> 8
<MIXTURE> 1 6.652511e-002
<MEAN> 39
 -1.851016e+001 -2.580324e+000 -4.058265e+000 9.547783e-001 6.276529e-001 -1.744979e+000 -3.177567e+000 7.420552e-001 -8.906164e-001 2.020660e-002 -1.171024e+000 -2.253482e-001 3.625499e+001 1.956367e-001 5.537625e-002 -3.166902e-001 2.036114e-001 8.663487e-002 1.089239e+000 6.377648e-001 -3.522500e-001 -5.652137e-002 2.793053e-001 -2.191077e-002 -8.059536e-002 -2.128829e+000 2.721981e-001 -6.952726e-001 -2.955580e-001 -8.673421e-001 -5.850543e-001 -6.346062e-001 -2.420849e-001 -2.637117e-002 -2.757667e-001 1.408694e-002 -1.014875e-001 -9.235650e-003 2.069729e+000
<VARIANCE> 39
 2.652025e+001 2.077273e+001 2.498404e+001 2.418951e+001 2.714192e+001 3.466822e+001 4.199774e+001 3.908417e+001 3.419749e+001 2.637457e+001 2.271189e+001 1.713377e+001 2.235907e+001 4.377007e+000 5.807831e+000 4.452984e+000 3.927045e+000 5.559413e+000 6.303028e+000 5.069456e+000 4.218222e+000 4.186709e+000 3.388690e+000 3.100914e+000 2.182003e+000 1.455779e+001 6.563281e-001 6.515813e-001 6.829005e-001 6.261132e-001 6.730180e-001 8.207881e-001 7.747191e-001 8.178086e-001 6.793353e-001 6.378387e-001 6.124294e-001 4.709041e-001 1.067831e+000
<GCONST> 1.297144e+002
<MIXTURE> 2 1.513875e-001
<MEAN> 39
 -5.035500e+000 1.398744e+000 1.213652e+000 -3.093880e-001 -1.428112e+001 -1.042360e+001 -2.042333e-001 -3.773814e+000 -1.637681e+001 -4.778236e+000 2.538640e+000 -6.108030e+000 4.631270e+001 -7.095817e-001 5.227983e-001 -5.382311e-001 9.025548e-002 2.321697e+000 1.211929e-001 -1.118820e+000 3.770834e-001 1.275171e+000 -2.395921e-001 -1.224593e+000 7.251822e-001 -1.563395e+000 -2.287646e-001 -1.178740e+000 -4.919978e-001 -3.580244e-001 7.029620e-001 2.687627e-001 -8.736624e-001 1.192797e-001 1.074973e+000 4.477475e-001 -3.796698e-001 2.853983e-001 9.017007e-001
<VARIANCE> 39
 9.232691e+000 1.584118e+001 4.102173e+001 3.297881e+001 3.494204e+001 3.064260e+001 3.296313e+001 4.140891e+001 3.552189e+001 4.289593e+001 3.277827e+001 3.289123e+001 1.934355e+001 1.292680e+000 5.783794e+000 3.026104e+000 3.471936e+000 5.709802e+000 4.227068e+000 6.728552e+000 5.784772e+000 6.001426e+000 3.910391e+000 3.808599e+000 2.964713e+000 3.838723e+000 1.898083e-001 6.759489e-001 5.281324e-001 5.513431e-001 7.486348e-001 7.240772e-001 7.597178e-001 6.787889e-001 7.934350e-001 7.315860e-001 5.926210e-001 4.921551e-001 5.313012e-001
<GCONST> 1.265053e+002
<MIXTURE> 3 1.258542e-001
<MEAN> 39
 -6.351463e+000 -8.956215e+000 7.923556e+000 -4.316272e+000 -1.934389e+001 -1.396513e+001 -6.595317e+000 4.588736e+000 -1.740600e+001 -4.396153e+000 7.021133e+000 -6.211903e+000 5.700270e+001 -5.300972e-001 3.125902e+000 -1.106131e-001 2.571596e+000 2.064112e+000 4.399325e-001 1.075721e+000 -1.595483e+000 -1.322056e+000 -6.635134e-001 -8.163363e-001 -6.488104e-001 -4.652685e+000 -1.098604e-001 2.955707e-001 -9.417717e-001 -9.193453e-002 9.240356e-001 3.695442e-001 1.479332e-002 -4.433545e-001 1.547832e+000 9.668560e-002 -1.077878e+000 3.623857e-001 -3.835965e-001
<VARIANCE> 39
